{"learner":{"attributes":{"scikit_learn":"{\"_estimator_type\": \"classifier\"}"},"feature_names":["bonus_malus_clean","bm_risk","bm_is_base","bm_is_good","bm_is_bad","experience_year","exp_group","is_new_driver","car_age_calc","power_per_vol","high_power","is_individual_person","is_residence","region_id","vehicle_type_id","policy_year","policy_month","pol_driver_cnt","pol_avg_bm","pol_max_bm_risk","pol_min_exp","region_x_bm","vehicle_x_power","drivers_x_new","bm_x_exp","power_x_new","SCORE_1_avg","SCORE_2_avg","SCORE_3_avg","SCORE_4_avg","SCORE_5_avg","SCORE_6_avg","SCORE_7_avg","SCORE_8_avg","SCORE_9_avg","SCORE_10_avg","SCORE_11_avg","SCORE_12_avg"],"feature_types":["int","float","int","int","int","float","float","float","float","float","float","int","int","int","int","int","int","int","float","float","float","float","float","float","float","float","float","float","float","float","float","float","float","float","float","float","float","float"],"gradient_booster":{"model":{"cats":{"enc":[],"feature_segments":[],"sorted_idx":[]},"gbtree_model_param":{"num_parallel_tree":"1","num_trees":"51"},"iteration_indptr":[0,1,2,3,4,5,6,7,8,9,10,11,12,13,14,15,16,17,18,19,20,21,22,23,24,25,26,27,28,29,30,31,32,33,34,35,36,37,38,39,40,41,42,43,44,45,46,47,48,49,50,51],"tree_info":[0,0,0,0,0,0,0,0,0,0,0,0,0,0,0,0,0,0,0,0,0,0,0,0,0,0,0,0,0,0,0,0,0,0,0,0,0,0,0,0,0,0,0,0,0,0,0,0,0,0,0],"trees":[{"base_weights":[-4.685858E-4,-2.3971541E-1,2.2257961E-1,-5.404695E-1,-2.0090677E-1,1.22132085E-1,4.872565E-1,-3.609966E-1,-1.0862347E0,-2.9896024E-1,-2.9368002E-2,1.5133177E-2,2.7512473E-1,6.530887E-1,5.6898404E-2,-7.5429404E-1,-2.7454388E-1,-1.2133304E0,1.2044621E-1,-2.5126407E-1,-5.910969E-1,7.8331595E-3,-6.340855E-1,3.478808E-2,-9.4156015E-1,3.542477E-1,-1.4012872E-2,5.763002E-1,9.265865E-1,-4.3480806E-3,9.9909514E-1,-9.976729E-3,-0E0,-4.872617E-3,8.9822884E-4,-1.5382904E-2,-7.3915734E-3,1.1870534E-2,-1.699115E-2,-1.0559798E-3,-3.1394335E-3,-8.585428E-3,-3.6808054E-3,2.3986036E-3,-5.250892E-4,-8.851445E-3,2.2056194E-3,-1.3165276E-3,1.20456E-3,-1.8920634E-2,-4.7591506E-3,2.6044482E-3,5.0187903E-3,-1.4177631E-3,2.5223442E-3,7.384448E-3,3.302945E-3,1.1814676E-2,6.6005974E-3,1.5928166E-3,-4.158729E-3,-1.1282052E-2,1.1431421E-2],"categories":[],"categories_nodes":[],"categories_segments":[],"categories_sizes":[],"default_left":[0,0,0,0,0,0,0,0,0,0,0,0,0,0,0,0,0,0,0,0,0,0,0,0,0,0,0,0,0,0,0,0,0,0,0,0,0,0,0,0,0,0,0,0,0,0,0,0,0,0,0,0,0,0,0,0,0,0,0,0,0,0,0],"id":0,"left_children":[1,3,5,7,9,11,13,15,17,19,21,23,25,27,29,31,33,35,37,39,41,43,45,47,49,51,53,55,57,59,61,-1,-1,-1,-1,-1,-1,-1,-1,-1,-1,-1,-1,-1,-1,-1,-1,-1,-1,-1,-1,-1,-1,-1,-1,-1,-1,-1,-1,-1,-1,-1,-1],"loss_changes":[5.9425605E3,6.242029E2,1.5297544E3,5.9319006E2,7.9981226E2,6.831859E2,1.1282153E3,1.5277039E2,2.3572156E2,4.1840625E2,3.919172E2,4.602629E2,3.9423096E2,2.3179736E2,2.580314E2,1.4942398E2,2.968011E2,1.9600745E2,2.9963486E2,2.363949E2,2.4678906E2,2.2934225E2,2.1995685E2,3.4405457E2,2.0461432E2,1.8377747E2,1.2547919E2,3.5214136E2,1.5786523E2,2.809186E2,9.265283E1,0E0,0E0,0E0,0E0,0E0,0E0,0E0,0E0,0E0,0E0,0E0,0E0,0E0,0E0,0E0,0E0,0E0,0E0,0E0,0E0,0E0,0E0,0E0,0E0,0E0,0E0,0E0,0E0,0E0,0E0,0E0,0E0],"parents":[2147483647,0,0,1,1,2,2,3,3,4,4,5,5,6,6,7,7,8,8,9,9,10,10,11,11,12,12,13,13,14,14,15,15,16,16,17,17,18,18,19,19,20,20,21,21,22,22,23,23,24,24,25,25,26,26,27,27,28,28,29,29,30,30],"right_children":[2,4,6,8,10,12,14,16,18,20,22,24,26,28,30,32,34,36,38,40,42,44,46,48,50,52,54,56,58,60,62,-1,-1,-1,-1,-1,-1,-1,-1,-1,-1,-1,-1,-1,-1,-1,-1,-1,-1,-1,-1,-1,-1,-1,-1,-1,-1,-1,-1,-1,-1,-1,-1],"split_conditions":[1.25E-1,2E0,5.625E-1,8E0,2.7E0,2.5333333E0,1.05E1,1.7333333E0,9E0,5E0,6E0,1.2333333E1,7.3333335E0,9E0,6.875E-1,6.6666665E0,1.1E1,1.0333333E1,1E0,4.3333335E0,5.6666665E0,3.3333333E0,1.1E1,2.5E-1,3E0,1.3125E0,9E0,3.5E0,6.6666665E0,8.333333E0,2E0,-9.976729E-3,-0E0,-4.872617E-3,8.9822884E-4,-1.5382904E-2,-7.3915734E-3,1.1870534E-2,-1.699115E-2,-1.0559798E-3,-3.1394335E-3,-8.585428E-3,-3.6808054E-3,2.3986036E-3,-5.250892E-4,-8.851445E-3,2.2056194E-3,-1.3165276E-3,1.20456E-3,-1.8920634E-2,-4.7591506E-3,2.6044482E-3,5.0187903E-3,-1.4177631E-3,2.5223442E-3,7.384448E-3,3.302945E-3,1.1814676E-2,6.6005974E-3,1.5928166E-3,-4.158729E-3,-1.1282052E-2,1.1431421E-2],"split_indices":[21,17,1,31,29,29,21,29,28,17,17,31,31,21,1,31,27,27,27,31,31,31,16,1,17,24,16,21,27,27,27,0,0,0,0,0,0,0,0,0,0,0,0,0,0,0,0,0,0,0,0,0,0,0,0,0,0,0,0,0,0,0,0],"split_type":[0,0,0,0,0,0,0,0,0,0,0,0,0,0,0,0,0,0,0,0,0,0,0,0,0,0,0,0,0,0,0,0,0,0,0,0,0,0,0,0,0,0,0,0,0,0,0,0,0,0,0,0,0,0,0,0,0,0,0,0,0,0,0],"sum_hessian":[1.11344914E5,5.3727953E4,5.761696E4,6.1213945E3,4.760656E4,4.1781883E4,1.5835077E4,4.619436E3,1.5019585E3,3.0277125E4,1.7329432E4,2.460271E4,1.717917E4,1.14228545E4,4.412223E3,8.1644147E2,3.8029946E3,1.361051E3,1.4090744E2,2.6047695E4,4.2294297E3,1.6326974E4,1.0024585E3,2.4117115E4,4.8559573E2,1.3495032E4,3.6841382E3,8.944325E3,2.4785288E3,4.14647E3,2.6575317E2,6.138149E2,2.0262659E2,2.4048894E3,1.3981053E3,7.94517E2,5.6653406E2,9.140745E1,4.95E1,7.856324E3,1.8191371E4,1.9079617E3,2.321468E3,3.375686E3,1.2951287E4,7.773628E2,2.2509575E2,8.181951E3,1.5935165E4,1.505E2,3.3509573E2,8.276152E3,5.21888E3,2.4993308E3,1.1848075E3,5.3752456E3,3.5690798E3,1.2489064E3,1.2296223E3,2.964666E3,1.1818042E3,1.25E1,2.5325319E2],"tree_param":{"num_deleted":"0","num_feature":"38","num_nodes":"63","size_leaf_vector":"1"}},{"base_weights":[1.07148625E-2,3.575346E-1,-3.7109786E-1,5.0308365E-1,2.2108847E-1,-2.2200188E-1,-6.170692E-1,5.1157856E-1,-1.4541656E0,5.0986695E-1,1.6567357E-1,-1.2240699E-1,-5.357046E-1,-5.9167594E-1,-1.6454626E0,6.5916413E-1,3.620609E-1,-1.8433925E-2,7.469312E-3,2.4437578E-1,7.464941E-1,1.7497514E-1,-1.0938398E0,-3.0581146E-1,4.3861943E-1,-4.8443583E-1,-1.3923708E0,-8.641114E-1,-3.0113116E-1,-0E0,-1.7371382E0,5.381793E-3,1.0752579E-2,1.3539724E-3,7.0720217E-3,4.415217E-3,-2.0195052E-3,3.7944093E-3,8.5811075E-3,2.4201865E-4,2.4263985E-3,-1.8476631E-2,1.4063227E-4,-3.663303E-3,1.2994049E-3,4.531596E-3,-1.610589E-2,-4.250105E-3,-8.085491E-3,-1.6578985E-2,-3.802429E-3,-1.01243E-2,-6.6046463E-3,2.78118E-3,-4.6312595E-3,-8.918914E-3,-1.9488279E-2],"categories":[],"categories_nodes":[],"categories_segments":[],"categories_sizes":[],"default_left":[0,0,0,0,0,0,0,0,0,0,0,0,0,0,0,0,0,0,0,0,0,0,0,0,0,0,0,0,0,0,0,0,0,0,0,0,0,0,0,0,0,0,0,0,0,0,0,0,0,0,0,0,0,0,0,0,0],"id":1,"left_children":[1,3,5,7,9,11,13,15,17,19,21,23,25,27,29,31,33,-1,-1,35,37,39,41,43,45,47,49,51,53,-1,55,-1,-1,-1,-1,-1,-1,-1,-1,-1,-1,-1,-1,-1,-1,-1,-1,-1,-1,-1,-1,-1,-1,-1,-1,-1,-1],"loss_changes":[1.4880127E4,1.1665366E3,1.9579272E3,4.7586084E2,4.8414172E2,1.0385087E3,5.132661E2,6.210967E2,1.186127E2,3.0264478E2,2.9778857E2,2.6042964E3,3.4186084E2,1.5540566E3,7.286841E1,7.0867334E2,1.1009446E3,0E0,0E0,2.0535327E2,9.944592E1,2.578875E2,1.6087932E2,5.0417395E2,1.873606E2,1.3989978E2,1.09279175E2,2.971167E2,8.9752716E2,0E0,6.058362E1,0E0,0E0,0E0,0E0,0E0,0E0,0E0,0E0,0E0,0E0,0E0,0E0,0E0,0E0,0E0,0E0,0E0,0E0,0E0,0E0,0E0,0E0,0E0,0E0,0E0,0E0],"parents":[2147483647,0,0,1,1,2,2,3,3,4,4,5,5,6,6,7,7,8,8,9,9,10,10,11,11,12,12,13,13,14,14,15,15,16,16,19,19,20,20,21,21,22,22,23,23,24,24,25,25,26,26,27,27,28,28,30,30],"right_children":[2,4,6,8,10,12,14,16,18,20,22,24,26,28,30,32,34,-1,-1,36,38,40,42,44,46,48,50,52,54,-1,56,-1,-1,-1,-1,-1,-1,-1,-1,-1,-1,-1,-1,-1,-1,-1,-1,-1,-1,-1,-1,-1,-1,-1,-1,-1,-1],"split_conditions":[1.0428572E1,1E0,8E0,3.5E1,4E0,9E0,2E0,9E0,9.333333E0,2.6666667E0,7E0,7E0,3E1,1.5E1,2E0,7E0,1.5E1,-1.8433925E-2,7.469312E-3,8E0,6E0,1.3333334E0,9E0,5.5E0,8E0,4.3333335E0,4.6666665E0,2.6666667E0,1.7E1,-0E0,4.2E0,5.381793E-3,1.0752579E-2,1.3539724E-3,7.0720217E-3,4.415217E-3,-2.0195052E-3,3.7944093E-3,8.5811075E-3,2.4201865E-4,2.4263985E-3,-1.8476631E-2,1.4063227E-4,-3.663303E-3,1.2994049E-3,4.531596E-3,-1.610589E-2,-4.250105E-3,-8.085491E-3,-1.6578985E-2,-3.802429E-3,-1.01243E-2,-6.6046463E-3,2.78118E-3,-4.6312595E-3,-8.918914E-3,-1.9488279E-2],"split_indices":[18,20,13,8,8,20,14,13,33,33,23,13,8,13,8,13,13,0,0,13,13,33,23,35,23,35,33,35,13,0,26,0,0,0,0,0,0,0,0,0,0,0,0,0,0,0,0,0,0,0,0,0,0,0,0,0,0],"split_type":[0,0,0,0,0,0,0,0,0,0,0,0,0,0,0,0,0,0,0,0,0,0,0,0,0,0,0,0,0,0,0,0,0,0,0,0,0,0,0,0,0,0,0,0,0,0,0,0,0,0,0,0,0,0,0,0,0],"sum_hessian":[1.12356836E5,5.888077E4,5.3476066E4,2.8470291E4,3.041048E4,3.331041E4,2.0165654E4,2.8353932E4,1.16359245E2,4.878109E3,2.5532371E4,2.5298041E4,8.0123706E3,1.969333E4,4.7232565E2,1.4247054E4,1.4106877E4,1.0099969E2,1.5359558E1,2.3115269E3,2.566582E3,2.5353543E4,1.7882787E2,1.9071824E4,6.2262153E3,7.573576E3,4.387945E2,1.0150939E4,9.54239E3,2.5109419E1,4.4721625E2,1.1055719E4,3.1913354E3,8.526036E3,5.5808413E3,1.6080397E3,7.0348706E2,6.1192615E2,1.9546558E3,7.87035E3,1.7483193E4,1.05249405E2,7.357845E1,1.6753092E4,2.3187327E3,6.189216E3,3.6999638E1,6.4216235E3,1.1519529E3,3.4171628E2,9.707824E1,5.848716E3,4.302224E3,2.080293E3,7.462096E3,9.97185E1,3.4749774E2],"tree_param":{"num_deleted":"0","num_feature":"38","num_nodes":"57","size_leaf_vector":"1"}},{"base_weights":[1.7536703E-2,3.2191807E-1,-3.8861975E-1,5.2589536E-1,1.4958936E-1,-3.671032E-1,-1.3497286E0,2.2065155E-1,5.8487034E-1,2.8880343E-1,-4.7526017E-2,-2.1976568E-1,-6.138273E-1,1.1139504E-2,-1.4298998E0,-1.85904E-2,2.7288783E-1,9.0696764E-1,5.4483783E-1,1.4476325E-1,4.7714204E-1,-2.5605133E-1,1.963203E-1,-3.7776107E-1,2.88355E-1,-8.877306E-1,-3.2711497E-1,-1.5423481E0,-6.037998E-2,1.0869083E-3,6.0420674E-3,9.269419E-3,-1.3394161E-2,4.09312E-3,6.7097005E-3,-1.2212102E-3,2.7097154E-3,-1.7739639E-4,5.54329E-3,-1.2782117E-3,-7.0400513E-3,7.5494155E-4,4.3839645E-3,-5.285802E-3,-1.4068466E-3,5.373029E-3,1.7716161E-4,-6.4206817E-3,-1.1063646E-2,-3.532491E-3,5.9607583E-3,-1.9382516E-2,-1.2834934E-2,1.1823447E-2,-1.5965631E-2],"categories":[],"categories_nodes":[],"categories_segments":[],"categories_sizes":[],"default_left":[0,0,0,0,0,0,0,0,0,0,0,0,0,0,0,0,0,0,0,0,0,0,0,0,0,0,0,0,0,0,0,0,0,0,0,0,0,0,0,0,0,0,0,0,0,0,0,0,0,0,0,0,0,0,0],"id":2,"left_children":[1,3,5,7,9,11,13,15,17,19,21,23,25,-1,27,-1,29,31,33,35,37,39,41,43,45,47,49,51,53,-1,-1,-1,-1,-1,-1,-1,-1,-1,-1,-1,-1,-1,-1,-1,-1,-1,-1,-1,-1,-1,-1,-1,-1,-1,-1],"loss_changes":[1.3965006E4,2.2673325E3,9.920161E2,5.2883984E2,9.618426E2,1.717456E3,2.202533E2,5.2090967E2,3.1148242E2,5.5473157E2,7.3747766E2,2.382039E3,1.3834473E3,0E0,1.5237402E2,0E0,2.5286566E2,1.294375E2,3.7177734E2,3.9325397E2,3.4114868E2,4.461809E2,1.9355432E2,8.066721E2,4.7219354E2,4.7516162E2,2.0965314E2,6.974756E1,1.806899E2,0E0,0E0,0E0,0E0,0E0,0E0,0E0,0E0,0E0,0E0,0E0,0E0,0E0,0E0,0E0,0E0,0E0,0E0,0E0,0E0,0E0,0E0,0E0,0E0,0E0,0E0],"parents":[2147483647,0,0,1,1,2,2,3,3,4,4,5,5,6,6,7,7,8,8,9,9,10,10,11,11,12,12,14,14,16,16,17,17,18,18,19,19,20,20,21,21,22,22,23,23,24,24,25,25,26,26,27,27,28,28],"right_children":[2,4,6,8,10,12,14,16,18,20,22,24,26,-1,28,-1,30,32,34,36,38,40,42,44,46,48,50,52,54,-1,-1,-1,-1,-1,-1,-1,-1,-1,-1,-1,-1,-1,-1,-1,-1,-1,-1,-1,-1,-1,-1,-1,-1,-1,-1],"split_conditions":[1.08E1,8.25E0,2E0,2E0,8E0,8E0,1.1E1,1.1666666E0,4.5E0,6E0,1.4E1,7E0,1.5E1,1.1139504E-2,4.3333335E0,-1.85904E-2,6.25E-1,9.333333E0,6.25E-1,4.375E-1,9E0,1.02E1,2.9333334E0,2.6333334E0,1.2666667E1,1.25E1,9.333333E0,2.3666666E0,4.3333335E0,1.0869083E-3,6.0420674E-3,9.269419E-3,-1.3394161E-2,4.09312E-3,6.7097005E-3,-1.2212102E-3,2.7097154E-3,-1.7739639E-4,5.54329E-3,-1.2782117E-3,-7.0400513E-3,7.5494155E-4,4.3839645E-3,-5.285802E-3,-1.4068466E-3,5.373029E-3,1.7716161E-4,-6.4206817E-3,-1.1063646E-2,-3.532491E-3,5.9607583E-3,-1.9382516E-2,-1.2834934E-2,1.1823447E-2,-1.5965631E-2],"split_indices":[18,18,14,17,13,13,18,29,18,13,13,13,13,0,29,0,19,33,19,19,18,18,29,29,18,18,33,29,33,0,0,0,0,0,0,0,0,0,0,0,0,0,0,0,0,0,0,0,0,0,0,0,0,0,0],"split_type":[0,0,0,0,0,0,0,0,0,0,0,0,0,0,0,0,0,0,0,0,0,0,0,0,0,0,0,0,0,0,0,0,0,0,0,0,0,0,0,0,0,0,0,0,0,0,0,0,0,0,0,0,0,0,0],"sum_hessian":[1.1294885E5,6.456869E4,4.8380164E4,2.9554572E4,3.5014117E4,4.73333E4,1.0468661E3,4.799143E3,2.475543E4,2.0528025E4,1.4486093E4,2.9651535E4,1.7681764E4,2.896871E1,1.0178974E3,1.10248436E2,4.6888945E3,2.7116096E3,2.2043818E4,1.164801E4,8.880016E3,7.8150234E3,6.6710693E3,2.2624393E4,7.027144E3,9.030023E3,8.651739E3,9.37821E2,8.007638E1,3.1474258E3,1.541469E3,2.69311E3,1.8499489E1,1.0652013E4,1.1391807E4,3.73221E3,7.9158003E3,1.1936289E3,7.6863867E3,6.0879863E3,1.7270371E3,4.464369E3,2.2067002E3,1.3814722E4,8.80967E3,3.6508848E3,3.376259E3,4.2716143E3,4.7584097E3,8.420927E3,2.3081271E2,3.4822568E2,5.8959534E2,4.4078053E1,3.5998325E1],"tree_param":{"num_deleted":"0","num_feature":"38","num_nodes":"55","size_leaf_vector":"1"}},{"base_weights":[1.3092554E-3,2.7251998E-1,-1.9883135E-1,4.656447E-1,6.793634E-2,2.4235794E-1,-4.0214947E-1,6.9335175E-1,3.5405135E-1,1.5278976E-1,-2.4758498E-1,5.4741085E-1,1.595428E-1,-2.52733E-1,-5.103934E-1,9.836341E-1,5.975719E-1,1.25159E-1,4.5764914E-1,2.2369914E-1,6.459938E-2,7.031455E-1,-2.8642327E-1,6.3662666E-1,1.6808623E-1,2.9272166E-1,1.1272631E-1,-2.2831158E-1,-6.591804E-1,-4.9732986E-1,-1.9075315E-2,1.1530545E-2,8.2015265E-3,6.4297966E-3,-4.911605E-3,3.6561432E-5,4.546715E-3,3.6857931E-3,7.177349E-3,3.9894027E-3,-2.2587075E-4,1.1189425E-3,-5.598714E-3,-1.0406538E-2,8.643408E-3,-1.0176031E-3,-5.9613064E-3,6.5588634E-3,-1.4791822E-2,5.119017E-3,-3.338089E-3,4.6532205E-3,8.8936265E-4,2.7320972E-3,-1.1971412E-3,-4.768011E-4,-5.434299E-3,-1.062426E-2,-1.6981622E-3,-3.69123E-3,-7.119588E-3],"categories":[],"categories_nodes":[],"categories_segments":[],"categories_sizes":[],"default_left":[0,0,0,0,0,0,0,0,0,0,0,0,0,0,0,0,0,0,0,0,0,0,0,0,0,0,0,0,0,0,0,0,0,0,0,0,0,0,0,0,0,0,0,0,0,0,0,0,0,0,0,0,0,0,0,0,0,0,0,0,0],"id":3,"left_children":[1,3,5,7,9,11,13,15,17,19,21,23,25,27,29,31,33,35,37,39,41,43,45,47,49,51,53,55,57,59,-1,-1,-1,-1,-1,-1,-1,-1,-1,-1,-1,-1,-1,-1,-1,-1,-1,-1,-1,-1,-1,-1,-1,-1,-1,-1,-1,-1,-1,-1,-1],"loss_changes":[6.0730894E3,1.8753716E3,5.7751006E3,6.159595E2,6.180931E2,5.10245E2,7.095659E2,2.1410156E2,3.871985E2,1.12885376E2,1.8065314E2,1.4319849E2,9.823477E1,1.8030566E2,4.522412E2,4.2049316E1,3.0202124E2,2.041868E2,2.5647095E2,4.3580927E2,2.3959036E2,5.941189E1,2.665277E2,1.4663843E2,1.46581E2,1.4357037E2,4.4300024E2,9.94503E2,2.0029263E2,6.914365E2,0E0,0E0,0E0,0E0,0E0,0E0,0E0,0E0,0E0,0E0,0E0,0E0,0E0,0E0,0E0,0E0,0E0,0E0,0E0,0E0,0E0,0E0,0E0,0E0,0E0,0E0,0E0,0E0,0E0,0E0,0E0],"parents":[2147483647,0,0,1,1,2,2,3,3,4,4,5,5,6,6,7,7,8,8,9,9,10,10,11,11,12,12,13,13,14,14,15,15,16,16,17,17,18,18,19,19,20,20,21,21,22,22,23,23,24,24,25,25,26,26,27,27,28,28,29,29],"right_children":[2,4,6,8,10,12,14,16,18,20,22,24,26,28,30,32,34,36,38,40,42,44,46,48,50,52,54,56,58,60,-1,-1,-1,-1,-1,-1,-1,-1,-1,-1,-1,-1,-1,-1,-1,-1,-1,-1,-1,-1,-1,-1,-1,-1,-1,-1,-1,-1,-1,-1,-1],"split_conditions":[1.1E1,8.25E0,1.075E1,4E0,1.08E1,8.25E0,1.26E1,4.5E0,2E0,8.666667E0,6.666667E-1,4E0,7.2E0,6E0,6E0,8E0,2E1,1.1333333E1,1.4E1,8E0,1.8E1,4.0833335E0,8E0,1.12E2,8E0,8E0,8E0,8E0,9.75E0,8E0,-1.9075315E-2,1.1530545E-2,8.2015265E-3,6.4297966E-3,-4.911605E-3,3.6561432E-5,4.546715E-3,3.6857931E-3,7.177349E-3,3.9894027E-3,-2.2587075E-4,1.1189425E-3,-5.598714E-3,-1.0406538E-2,8.643408E-3,-1.0176031E-3,-5.9613064E-3,6.5588634E-3,-1.4791822E-2,5.119017E-3,-3.338089E-3,4.6532205E-3,8.8936265E-4,2.7320972E-3,-1.1971412E-3,-4.768011E-4,-5.434299E-3,-1.062426E-2,-1.6981622E-3,-3.69123E-3,-7.119588E-3],"split_indices":[0,18,18,27,18,18,18,18,23,27,27,23,28,23,23,13,13,27,13,13,13,34,13,25,13,13,13,13,34,13,0,0,0,0,0,0,0,0,0,0,0,0,0,0,0,0,0,0,0,0,0,0,0,0,0,0,0,0,0,0,0],"split_type":[0,0,0,0,0,0,0,0,0,0,0,0,0,0,0,0,0,0,0,0,0,0,0,0,0,0,0,0,0,0,0,0,0,0,0,0,0,0,0,0,0,0,0,0,0,0,0,0,0,0,0,0,0,0,0,0,0,0,0,0,0],"sum_hessian":[1.11865836E5,4.7504668E4,6.4361168E4,2.4424559E4,2.3080111E4,2.0298475E4,4.406269E4,8.012209E3,1.641235E4,1.8198967E4,4.8811455E3,4.3178833E3,1.5980592E4,1.8532322E4,2.553037E4,1.9639141E3,6.048295E3,5.1276235E3,1.1284727E4,1.0063027E4,8.135939E3,1.838429E2,4.6973027E3,3.4854585E3,8.324249E2,4.130294E3,1.1850298E4,1.7499195E4,1.0331265E3,2.5305396E4,2.249717E2,9.346193E2,1.0292947E3,5.8115347E3,2.3676015E2,3.758072E3,1.3695513E3,8.427181E3,2.8575454E3,5.884117E3,4.1789097E3,7.572945E3,5.6299414E2,1.0749851E1,1.7309305E2,2.954606E3,1.7426965E3,3.460209E3,2.52495E1,4.9747513E2,3.3494977E2,2.223418E3,1.9068762E3,7.0171436E3,4.833154E3,1.113436E4,6.364836E3,5.58546E2,4.745804E2,1.5862862E4,9.442534E3],"tree_param":{"num_deleted":"0","num_feature":"38","num_nodes":"61","size_leaf_vector":"1"}},{"base_weights":[-2.2513993E-2,-2.1931462E-1,2.4349469E-1,-1.3422833E-1,-5.576094E-1,1.7759845E-1,5.387683E-1,1.8720685E-1,-3.36026E-1,-5.1787245E-1,-1.471022E0,3.9562967E-1,4.583415E-2,7.0190203E-1,7.279661E-2,4.5354217E-1,1.1879814E-1,-3.7299865E-1,2.7997838E-2,-4.371492E-1,-9.392475E-1,-1.5562897E0,1.0942504E-2,6.2764555E-2,4.919865E-1,2.7576983E-1,-5.7838153E-2,9.423687E-1,5.7713425E-1,3.6762023E-1,-4.8283026E-1,4.7222152E-3,-1.5500099E-2,-3.008928E-3,2.1789814E-3,-2.4542338E-3,-5.730461E-3,9.879086E-4,-1.2210156E-2,-1.0752296E-2,-3.7061383E-3,-7.746614E-3,-1.914367E-2,-1.7154329E-2,-5.013713E-3,1.135376E-3,-9.301597E-3,5.198207E-3,-1.12497695E-2,3.3461526E-3,-1.1439214E-3,2.3993202E-4,-5.245748E-3,9.6243555E-3,-1.212906E-2,6.5655774E-3,-2.7544322E-4,4.5934347E-3,-6.39249E-3,-1.3596977E-3,-1.42524475E-2],"categories":[],"categories_nodes":[],"categories_segments":[],"categories_sizes":[],"default_left":[0,0,0,0,0,0,0,0,0,0,0,0,0,0,0,0,0,0,0,0,0,0,0,0,0,0,0,0,0,0,0,0,0,0,0,0,0,0,0,0,0,0,0,0,0,0,0,0,0,0,0,0,0,0,0,0,0,0,0,0,0],"id":4,"left_children":[1,3,5,7,9,11,13,15,17,19,21,23,25,27,29,31,33,35,37,39,41,43,-1,45,47,49,51,53,55,57,59,-1,-1,-1,-1,-1,-1,-1,-1,-1,-1,-1,-1,-1,-1,-1,-1,-1,-1,-1,-1,-1,-1,-1,-1,-1,-1,-1,-1,-1,-1],"loss_changes":[5.783721E3,1.8254187E3,9.111738E2,3.2934841E3,4.516128E2,1.102371E3,6.4791846E2,3.5457263E2,4.209182E2,4.092002E2,1.2808875E2,4.620276E2,5.720536E2,1.8166406E2,3.6651797E2,1.5118323E2,6.487787E2,7.194182E2,2.5168802E2,4.2964258E2,2.95333E2,7.3267456E1,0E0,1.6273967E2,5.0675024E2,1.7215277E2,6.323488E2,1.00165405E2,2.035481E2,1.3687904E2,2.4672319E2,0E0,0E0,0E0,0E0,0E0,0E0,0E0,0E0,0E0,0E0,0E0,0E0,0E0,0E0,0E0,0E0,0E0,0E0,0E0,0E0,0E0,0E0,0E0,0E0,0E0,0E0,0E0,0E0,0E0,0E0],"parents":[2147483647,0,0,1,1,2,2,3,3,4,4,5,5,6,6,7,7,8,8,9,9,10,10,11,11,12,12,13,13,14,14,15,15,16,16,17,17,18,18,19,19,20,20,21,21,23,23,24,24,25,25,26,26,27,27,28,28,29,29,30,30],"right_children":[2,4,6,8,10,12,14,16,18,20,22,24,26,28,30,32,34,36,38,40,42,44,-1,46,48,50,52,54,56,58,60,-1,-1,-1,-1,-1,-1,-1,-1,-1,-1,-1,-1,-1,-1,-1,-1,-1,-1,-1,-1,-1,-1,-1,-1,-1,-1,-1,-1,-1,-1],"split_conditions":[1.875E-1,9E0,6.25E-1,1.075E1,1.03E2,7.75E0,1.125E1,8.25E0,5.6666665E0,9E0,1.875E0,1.1666666E0,1.625E0,4.3333335E0,7.25E0,1.09E2,3.55E1,1.6E1,9.15E1,5.1666665E0,2.3E1,1.3E1,1.0942504E-2,3.8516052E0,3.3E1,1.1125E1,2.7E1,1.0428572E1,6.5E1,1E1,8.333333E0,4.7222152E-3,-1.5500099E-2,-3.008928E-3,2.1789814E-3,-2.4542338E-3,-5.730461E-3,9.879086E-4,-1.2210156E-2,-1.0752296E-2,-3.7061383E-3,-7.746614E-3,-1.914367E-2,-1.7154329E-2,-5.013713E-3,1.135376E-3,-9.301597E-3,5.198207E-3,-1.12497695E-2,3.3461526E-3,-1.1439214E-3,2.3993202E-4,-5.245748E-3,9.6243555E-3,-1.212906E-2,6.5655774E-3,-2.7544322E-4,4.5934347E-3,-6.39249E-3,-1.3596977E-3,-1.42524475E-2],"split_indices":[1,20,1,18,9,18,21,18,35,31,24,35,21,27,18,9,9,8,9,30,8,27,0,20,8,18,8,18,9,27,27,0,0,0,0,0,0,0,0,0,0,0,0,0,0,0,0,0,0,0,0,0,0,0,0,0,0,0,0,0,0],"split_type":[0,0,0,0,0,0,0,0,0,0,0,0,0,0,0,0,0,0,0,0,0,0,0,0,0,0,0,0,0,0,0,0,0,0,0,0,0,0,0,0,0,0,0,0,0,0,0,0,0,0,0,0,0,0,0,0,0,0,0,0,0],"sum_hessian":[1.1046759E5,6.3500594E4,4.6967E4,5.0753867E4,1.2746727E4,3.841524E4,8.551762E3,1.9568943E4,3.1184924E4,1.2228973E4,5.177536E2,1.445676E4,2.395848E4,6.326805E3,2.2249565E3,3.9821182E3,1.5586826E4,2.8316938E4,2.8679854E3,1.0280843E4,1.9481304E3,5.0489407E2,1.2859558E1,3.2550093E3,1.1201751E4,7.4507393E3,1.650774E4,2.1374163E3,4.189389E3,1.4587112E3,7.662453E2,3.9521196E3,2.9998566E1,2.968907E3,1.2617919E4,1.7309084E4,1.10078545E4,2.7225232E3,1.454621E2,9.565191E2,9.324323E3,1.6801781E3,2.679522E2,4.3243146E2,7.246261E1,3.1054343E3,1.4957503E2,1.1018681E4,1.8306952E2,6.481817E3,9.6892224E2,1.4045418E4,2.4623228E3,2.1229167E3,1.4499569E1,3.7068604E3,4.825288E2,1.3431405E3,1.15570656E2,5.6828015E2,1.9796515E2],"tree_param":{"num_deleted":"0","num_feature":"38","num_nodes":"61","size_leaf_vector":"1"}},{"base_weights":[-7.656192E-4,2.8556347E-1,-3.790881E-1,5.6715906E-1,2.4065234E-1,-3.401141E-1,-1.1443288E0,5.806287E-1,-1.0744616E0,1.7501501E-2,3.052909E-1,-3.0932868E-1,-1.0543846E0,-8.9748985E-1,-1.9412305E-2,7.2261614E-1,3.751697E-1,-1.7017731E-2,5.0816867E-3,3.888121E-1,-5.759233E-2,4.636163E-1,1.7796803E-1,-7.4897295E-1,-2.514319E-1,-1.7394304E0,-9.302926E-1,-1.3873218E0,-1.8827933E-1,2.1224828E-3,7.7633867E-3,4.5784325E-3,1.4036283E-4,7.235416E-3,1.8450586E-4,2.3312734E-3,-3.0533653E-3,4.772106E-3,-1.0255835E-2,2.0142668E-3,-7.1724113E-3,-5.200945E-3,-1.0505236E-2,-7.519848E-4,-3.7783848E-3,6.4984667E-3,-1.915837E-2,-8.9711096E-4,-1.0757862E-2,-5.7626152E-3,-1.9470422E-2,1.453444E-3,-1.838541E-2],"categories":[],"categories_nodes":[],"categories_segments":[],"categories_sizes":[],"default_left":[0,0,0,0,0,0,0,0,0,0,0,0,0,0,0,0,0,0,0,0,0,0,0,0,0,0,0,0,0,0,0,0,0,0,0,0,0,0,0,0,0,0,0,0,0,0,0,0,0,0,0,0,0],"id":5,"left_children":[1,3,5,7,9,11,13,15,17,19,21,23,25,27,-1,29,31,-1,-1,33,35,37,39,41,43,45,47,49,51,-1,-1,-1,-1,-1,-1,-1,-1,-1,-1,-1,-1,-1,-1,-1,-1,-1,-1,-1,-1,-1,-1,-1,-1],"loss_changes":[1.2084379E4,7.995991E2,1.4262378E3,1.9568262E2,7.8915845E2,9.9954395E2,4.3613574E2,2.4728296E2,8.07207E1,3.4472037E2,8.5354297E2,1.1123447E3,1.4075879E2,6.149751E2,0E0,1.3575684E2,1.0482565E2,0E0,0E0,2.5558783E2,7.388468E2,3.8468042E2,4.9421808E2,3.431394E2,8.623804E2,1.2929376E2,1.9312231E2,4.633435E2,4.1519092E2,0E0,0E0,0E0,0E0,0E0,0E0,0E0,0E0,0E0,0E0,0E0,0E0,0E0,0E0,0E0,0E0,0E0,0E0,0E0,0E0,0E0,0E0,0E0,0E0],"parents":[2147483647,0,0,1,1,2,2,3,3,4,4,5,5,6,6,7,7,8,8,9,9,10,10,11,11,12,12,13,13,15,15,16,16,19,19,20,20,21,21,22,22,23,23,24,24,25,25,26,26,27,27,28,28],"right_children":[2,4,6,8,10,12,14,16,18,20,22,24,26,28,-1,30,32,-1,-1,34,36,38,40,42,44,46,48,50,52,-1,-1,-1,-1,-1,-1,-1,-1,-1,-1,-1,-1,-1,-1,-1,-1,-1,-1,-1,-1,-1,-1,-1,-1],"split_conditions":[1.08E1,4E0,6E0,1.165E2,3.55E1,1.385E2,8.1E1,7.6666665E0,2.9333334E0,5E0,4.65E1,3.25E1,1.3E1,5.65E1,-1.9412305E-2,2.9E1,8.25E0,-1.7017731E-2,5.0816867E-3,6.25E0,8.375E0,8E0,1.5E2,3E0,1.25E1,1.1E1,1.18E1,1.15E1,1.24E1,2.1224828E-3,7.7633867E-3,4.5784325E-3,1.4036283E-4,7.235416E-3,1.8450586E-4,2.3312734E-3,-3.0533653E-3,4.772106E-3,-1.0255835E-2,2.0142668E-3,-7.1724113E-3,-5.200945E-3,-1.0505236E-2,-7.519848E-4,-3.7783848E-3,6.4984667E-3,-1.915837E-2,-8.9711096E-4,-1.0757862E-2,-5.7626152E-3,-1.9470422E-2,1.453444E-3,-1.838541E-2],"split_indices":[18,0,17,22,22,22,22,27,29,0,22,22,0,22,0,22,18,0,0,18,18,17,22,17,18,18,18,18,18,0,0,0,0,0,0,0,0,0,0,0,0,0,0,0,0,0,0,0,0,0,0,0,0],"split_type":[0,0,0,0,0,0,0,0,0,0,0,0,0,0,0,0,0,0,0,0,0,0,0,0,0,0,0,0,0,0,0,0,0,0,0,0,0,0,0,0,0,0,0,0,0,0,0,0,0,0,0,0,0],"sum_hessian":[1.1154039E5,6.3485727E4,4.8054664E4,8.712103E3,5.4773625E4,4.573918E4,2.315484E3,8.6475E3,6.460177E1,1.2314784E4,4.245884E4,4.38629E4,1.8762815E3,1.7821227E3,5.333612E2,5.0945596E3,3.5529412E3,4.7244102E1,1.735767E1,2.073385E3,1.0241398E4,1.8906566E4,2.3552273E4,5.0883896E3,3.8774508E4,2.700704E2,1.606211E3,1.0476304E3,7.3449225E2,4.93812E2,4.6007476E3,2.8828044E3,6.7013666E2,1.081321E3,9.92064E2,4.7066284E3,5.53477E3,1.8742248E4,1.6431958E2,2.2959406E4,5.9286743E2,2.9092654E3,2.1791245E3,1.62099E4,2.2564607E4,1.610803E1,2.5396236E2,2.4170561E2,1.3645055E3,4.3576038E2,6.1187E2,6.147728E2,1.1971943E2],"tree_param":{"num_deleted":"0","num_feature":"38","num_nodes":"53","size_leaf_vector":"1"}},{"base_weights":[-6.8502426E-3,2.4799192E-1,-1.9401918E-1,5.6508654E-1,1.7589878E-1,-1.6228402E-1,-1.0520005E0,9.072616E-1,4.364464E-1,4.7307126E-2,2.7577895E-1,-2.5530452E-2,-3.7385413E-1,-6.0018736E-1,-1.1697854E0,9.237761E-1,-1.1776564E-2,5.11077E-1,1.14182904E-1,7.0243835E-2,-1.243029E0,3.7918755E-1,1.6476455E-1,-1.5068011E-1,4.0016145E-1,-6.4894783E-1,-8.160007E-2,-1.1913537E0,-1.11348525E-1,-1.3687817E0,-7.480652E-1,4.971567E-3,1.039671E-2,5.407353E-3,-8.867776E-4,2.33344E-3,-1.2929852E-2,1.4818158E-3,-2.9475829E-3,-1.6741944E-2,-5.7498156E-4,2.289688E-3,8.65827E-3,-6.102354E-4,4.7269003E-3,-2.7479094E-3,9.4918645E-4,2.0211986E-3,6.7326617E-3,-9.199652E-3,-4.632468E-3,1.6133976E-3,-4.1929195E-3,-1.8492881E-2,4.3872925E-3,-5.7272185E-3,4.241758E-3,-6.0175573E-3,-1.5048589E-2,-1.4878665E-2,-1.8296618E-3],"categories":[],"categories_nodes":[],"categories_segments":[],"categories_sizes":[],"default_left":[0,0,0,0,0,0,0,0,0,0,0,0,0,0,0,0,0,0,0,0,0,0,0,0,0,0,0,0,0,0,0,0,0,0,0,0,0,0,0,0,0,0,0,0,0,0,0,0,0,0,0,0,0,0,0,0,0,0,0,0,0],"id":6,"left_children":[1,3,5,7,9,11,13,15,17,19,21,23,25,27,29,31,-1,33,35,37,39,41,43,45,47,49,51,53,55,57,59,-1,-1,-1,-1,-1,-1,-1,-1,-1,-1,-1,-1,-1,-1,-1,-1,-1,-1,-1,-1,-1,-1,-1,-1,-1,-1,-1,-1,-1,-1],"loss_changes":[5.302528E3,1.0730825E3,1.740554E3,3.7650464E2,4.9172058E2,1.7875906E3,1.11206055E2,8.833313E1,1.504054E2,4.9414383E2,2.4566418E2,2.0012174E3,1.9482515E3,1.3719623E2,1.3731445E2,1.0812012E2,0E0,9.321484E1,2.0188438E2,4.6953583E2,1.4308878E2,8.106603E2,7.268407E2,8.860457E2,4.578971E2,6.2161816E2,9.675557E2,2.4474435E2,7.12109E1,1.1340967E2,2.4244485E2,0E0,0E0,0E0,0E0,0E0,0E0,0E0,0E0,0E0,0E0,0E0,0E0,0E0,0E0,0E0,0E0,0E0,0E0,0E0,0E0,0E0,0E0,0E0,0E0,0E0,0E0,0E0,0E0,0E0,0E0],"parents":[2147483647,0,0,1,1,2,2,3,3,4,4,5,5,6,6,7,7,8,8,9,9,10,10,11,11,12,12,13,13,14,14,15,15,17,17,18,18,19,19,20,20,21,21,22,22,23,23,24,24,25,25,26,26,27,27,28,28,29,29,30,30],"right_children":[2,4,6,8,10,12,14,16,18,20,22,24,26,28,30,32,-1,34,36,38,40,42,44,46,48,50,52,54,56,58,60,-1,-1,-1,-1,-1,-1,-1,-1,-1,-1,-1,-1,-1,-1,-1,-1,-1,-1,-1,-1,-1,-1,-1,-1,-1,-1,-1,-1,-1,-1],"split_conditions":[1.1E1,4E0,1.385E2,2.6666667E0,2E0,9E0,3.3333333E0,8E0,4E0,6E0,8E0,7E0,1.4E1,1E0,1.1E1,1.5E0,-1.1776564E-2,1E0,1.1666667E1,7.3333335E0,8E0,7E0,1.5E1,2E0,2E0,2E0,1.8E1,6E0,1E0,2E0,1E0,4.971567E-3,1.039671E-2,5.407353E-3,-8.867776E-4,2.33344E-3,-1.2929852E-2,1.4818158E-3,-2.9475829E-3,-1.6741944E-2,-5.7498156E-4,2.289688E-3,8.65827E-3,-6.102354E-4,4.7269003E-3,-2.7479094E-3,9.4918645E-4,2.0211986E-3,6.7326617E-3,-9.199652E-3,-4.632468E-3,1.6133976E-3,-4.1929195E-3,-1.8492881E-2,4.3872925E-3,-5.7272185E-3,4.241758E-3,-6.0175573E-3,-1.5048589E-2,-1.4878665E-2,-1.8296618E-3],"split_indices":[0,0,22,27,23,13,31,17,17,17,13,13,13,10,13,35,0,10,27,31,31,13,13,23,23,23,13,35,23,6,10,0,0,0,0,0,0,0,0,0,0,0,0,0,0,0,0,0,0,0,0,0,0,0,0,0,0,0,0,0,0],"split_type":[0,0,0,0,0,0,0,0,0,0,0,0,0,0,0,0,0,0,0,0,0,0,0,0,0,0,0,0,0,0,0,0,0,0,0,0,0,0,0,0,0,0,0,0,0,0,0,0,0,0,0,0,0,0,0,0,0,0,0,0,0],"sum_hessian":[1.1115685E5,4.7061453E4,6.40954E4,8.701088E3,3.8360367E4,6.1820586E4,2.2748108E3,2.3594368E3,6.341651E3,1.6787496E4,2.157287E4,3.7562902E4,2.4257684E4,4.844889E2,1.7903218E3,2.3461902E3,1.3246584E1,5.1383E3,1.2033512E3,1.6503086E4,2.84411E2,1.1146293E4,1.0426576E4,2.9037658E4,8.525245E3,1.2486011E4,1.1771673E4,2.1196138E2,2.7252753E2,1.2008467E3,5.894751E2,5.1464575E2,1.8315443E3,4.901603E3,2.3669684E2,1.116754E3,8.659723E1,1.3609475E4,2.893611E3,2.0458844E2,7.9822586E1,8.529741E3,2.6165522E3,6.0132188E3,4.413357E3,1.9297332E4,9.740326E3,4.9551733E3,3.5700723E3,5.0589707E3,7.4270396E3,6.843293E3,4.9283804E3,1.5165103E2,6.031035E1,1.4914745E2,1.23380066E2,1.8998132E2,1.0108654E3,2.4802846E2,3.4144662E2],"tree_param":{"num_deleted":"0","num_feature":"38","num_nodes":"61","size_leaf_vector":"1"}},{"base_weights":[-6.1540804E-3,-2.2688647E-1,2.0009832E-1,-8.290867E-2,-4.5764616E-1,5.5300385E-1,1.3742085E-1,-1.9567642E-1,3.3096087E-1,-7.665947E-1,-1.3023749E-1,6.936256E-1,1.5892853E-1,-2.7012703E-1,1.7104855E-1,-1.671306E-1,-1.0500569E0,3.891784E-1,-1.0491499E0,-1.1329263E0,-7.095006E-1,-8.7938465E-2,-1.0335336E0,7.664028E-1,4.094232E-1,3.3580083E-1,-3.0823967E-1,-9.7073905E-2,-7.839383E-1,2.4483214E-1,8.458548E-3,-2.542634E-3,2.9434264E-4,-6.4430293E-3,-1.3217545E-2,2.367794E-3,5.4382305E-3,-1.2855653E-2,6.42928E-4,-6.909776E-3,-1.3808363E-2,-7.3480653E-3,1.5063606E-3,1.0329281E-3,-5.70323E-3,4.9613053E-3,-1.1929265E-2,1.0516477E-2,6.5177954E-3,5.1987097E-3,-6.6742394E-3,4.182945E-3,-4.0272353E-3,-5.3625694E-3,7.278357E-3,4.3986263E-3,-2.6385179E-3,-4.653447E-3,-1.2575116E-2,4.0509608E-3,1.6649339E-3,-3.368557E-3,1.1885704E-3],"categories":[],"categories_nodes":[],"categories_segments":[],"categories_sizes":[],"default_left":[0,0,0,0,0,0,0,0,0,0,0,0,0,0,0,0,0,0,0,0,0,0,0,0,0,0,0,0,0,0,0,0,0,0,0,0,0,0,0,0,0,0,0,0,0,0,0,0,0,0,0,0,0,0,0,0,0,0,0,0,0,0,0],"id":7,"left_children":[1,3,5,7,9,11,13,15,17,19,21,23,25,27,29,31,33,35,37,39,41,43,45,47,49,51,53,55,57,59,61,-1,-1,-1,-1,-1,-1,-1,-1,-1,-1,-1,-1,-1,-1,-1,-1,-1,-1,-1,-1,-1,-1,-1,-1,-1,-1,-1,-1,-1,-1,-1,-1],"loss_changes":[5.070789E3,1.7858416E3,1.2708262E3,1.5472395E3,2.0868213E3,4.773037E2,6.7026337E2,6.307575E2,5.709737E2,2.1108398E2,3.7981992E2,1.2633032E2,1.9049863E2,3.279135E2,5.413263E2,4.328745E2,8.051276E1,1.5738123E2,7.9791504E1,1.4201965E2,2.0318506E2,8.8801904E2,1.1486252E2,1.5574438E2,1.5958095E2,1.03165726E2,1.5086232E2,2.508252E2,1.3147198E2,3.8789246E2,5.381172E2,0E0,0E0,0E0,0E0,0E0,0E0,0E0,0E0,0E0,0E0,0E0,0E0,0E0,0E0,0E0,0E0,0E0,0E0,0E0,0E0,0E0,0E0,0E0,0E0,0E0,0E0,0E0,0E0,0E0,0E0,0E0,0E0],"parents":[2147483647,0,0,1,1,2,2,3,3,4,4,5,5,6,6,7,7,8,8,9,9,10,10,11,11,12,12,13,13,14,14,15,15,16,16,17,17,18,18,19,19,20,20,21,21,22,22,23,23,24,24,25,25,26,26,27,27,28,28,29,29,30,30],"right_children":[2,4,6,8,10,12,14,16,18,20,22,24,26,28,30,32,34,36,38,40,42,44,46,48,50,52,54,56,58,60,62,-1,-1,-1,-1,-1,-1,-1,-1,-1,-1,-1,-1,-1,-1,-1,-1,-1,-1,-1,-1,-1,-1,-1,-1,-1,-1,-1,-1,-1,-1,-1,-1],"split_conditions":[1.25E-1,8E0,4E0,7E0,1.5E1,1.125E1,2.8E1,1.125E2,1.05E2,2.9E1,9.15E1,5.6E1,7E0,1E1,1E1,3.6666667E0,2E0,2.5E0,1.2E1,7.6666665E0,7E0,2.1E1,3.1666667E0,3E0,6.875E-1,1E1,8.2E0,2E0,1.375E0,4.6666665E0,1.5E0,-2.542634E-3,2.9434264E-4,-6.4430293E-3,-1.3217545E-2,2.367794E-3,5.4382305E-3,-1.2855653E-2,6.42928E-4,-6.909776E-3,-1.3808363E-2,-7.3480653E-3,1.5063606E-3,1.0329281E-3,-5.70323E-3,4.9613053E-3,-1.1929265E-2,1.0516477E-2,6.5177954E-3,5.1987097E-3,-6.6742394E-3,4.182945E-3,-4.0272353E-3,-5.3625694E-3,7.278357E-3,4.3986263E-3,-2.6385179E-3,-4.653447E-3,-1.2575116E-2,4.0509608E-3,1.6649339E-3,-3.368557E-3,1.1885704E-3],"split_indices":[21,13,0,13,13,21,9,9,9,9,9,9,16,0,0,35,13,35,16,27,35,13,30,27,24,27,28,27,21,27,35,0,0,0,0,0,0,0,0,0,0,0,0,0,0,0,0,0,0,0,0,0,0,0,0,0,0,0,0,0,0,0,0],"split_type":[0,0,0,0,0,0,0,0,0,0,0,0,0,0,0,0,0,0,0,0,0,0,0,0,0,0,0,0,0,0,0,0,0,0,0,0,0,0,0,0,0,0,0,0,0,0,0,0,0,0,0,0,0,0,0,0,0,0,0,0,0,0,0],"sum_hessian":[1.11365086E5,5.3800914E4,5.756417E4,3.314394E4,2.065697E4,8.666245E3,4.889793E4,2.6055494E4,7.088447E3,1.0618561E4,1.0038411E4,6.3775483E3,2.288697E3,3.7165916E3,4.5181336E4,2.5224594E4,8.309012E2,6.8084443E3,2.8000244E2,1.4069208E3,9.21164E3,9.599876E3,4.3853473E2,5.059503E3,1.3180453E3,1.6662399E3,6.2245703E2,2.7908025E3,9.257891E2,3.1062938E4,1.4118399E4,1.7486451E4,7.7381426E3,3.4713318E2,4.8376797E2,3.447814E3,3.3606301E3,2.3229242E2,4.771003E1,5.194716E2,8.874492E2,8.95275E3,2.5888974E2,6.8740747E3,2.7258015E3,3.8211952E1,4.0032278E2,1.426414E3,3.6330889E3,1.2012451E3,1.1680028E2,1.5052048E3,1.6103508E2,5.153191E2,1.071379E2,6.54431E2,2.1363713E3,5.655392E2,3.6024994E2,1.0176517E4,2.088642E4,3.410185E3,1.0708214E4],"tree_param":{"num_deleted":"0","num_feature":"38","num_nodes":"63","size_leaf_vector":"1"}},{"base_weights":[1.1920624E-2,3.1072924E-1,-1.7550096E-1,4.0530944E-1,9.143782E-2,-4.90572E-2,-4.0997612E-1,6.4055467E-1,3.0969566E-1,-4.2618237E-2,2.733501E-1,-1.360589E-1,1.1979954E-1,-3.3835047E-1,-6.4122003E-1,6.4763516E-1,-1.44609185E-2,2.5475097E-1,6.9933283E-1,-7.07736E-1,-1.084453E-3,7.5597185E-1,1.8656003E-1,-5.8829915E-2,-3.5807398E-1,1.9866475E-1,-1.030682E-1,-3.0948287E-1,-1.1061195E0,-3.7747315E-1,-8.5755587E-1,8.1288135E-3,1.8165832E-3,2.974174E-3,-1.568158E-3,1.2212306E-2,6.1810636E-3,-1.1416764E-2,2.9607858E-3,-2.1463289E-4,8.518853E-3,8.090126E-3,-1.265274E-2,3.3639323E-3,-2.2793082E-3,-1.5493612E-4,-3.321485E-3,-2.8803863E-3,-8.469643E-3,4.248495E-3,7.940661E-4,-4.8620248E-4,-7.0511214E-3,-2.9180988E-3,-1.2774668E-2,-0E0,-1.3666279E-2,-5.1879846E-3,4.4371086E-4,-6.2309024E-3,-1.2094869E-2],"categories":[],"categories_nodes":[],"categories_segments":[],"categories_sizes":[],"default_left":[0,0,0,0,0,0,0,0,0,0,0,0,0,0,0,0,0,0,0,0,0,0,0,0,0,0,0,0,0,0,0,0,0,0,0,0,0,0,0,0,0,0,0,0,0,0,0,0,0,0,0,0,0,0,0,0,0,0,0,0,0],"id":8,"left_children":[1,3,5,7,9,11,13,15,17,19,21,23,25,27,29,31,-1,33,35,37,39,41,43,45,47,49,51,53,55,57,59,-1,-1,-1,-1,-1,-1,-1,-1,-1,-1,-1,-1,-1,-1,-1,-1,-1,-1,-1,-1,-1,-1,-1,-1,-1,-1,-1,-1,-1,-1],"loss_changes":[6.293556E3,8.967461E2,2.0456992E3,6.7627637E2,3.1956683E2,6.594283E2,3.9606738E2,1.3310718E2,4.5690796E2,2.0568492E2,2.2893909E2,5.0666248E2,2.684994E2,4.0311523E2,3.1931958E2,6.6623096E2,0E0,3.3247095E2,1.0156262E2,1.9565083E2,1.2091219E2,9.578735E1,2.942649E2,2.5953293E2,2.563369E2,3.0245544E2,1.27997284E2,2.9772766E2,1.8780396E2,1.558606E2,2.466997E2,0E0,0E0,0E0,0E0,0E0,0E0,0E0,0E0,0E0,0E0,0E0,0E0,0E0,0E0,0E0,0E0,0E0,0E0,0E0,0E0,0E0,0E0,0E0,0E0,0E0,0E0,0E0,0E0,0E0,0E0],"parents":[2147483647,0,0,1,1,2,2,3,3,4,4,5,5,6,6,7,7,8,8,9,9,10,10,11,11,12,12,13,13,14,14,15,15,17,17,18,18,19,19,20,20,21,21,22,22,23,23,24,24,25,25,26,26,27,27,28,28,29,29,30,30],"right_children":[2,4,6,8,10,12,14,16,18,20,22,24,26,28,30,32,-1,34,36,38,40,42,44,46,48,50,52,54,56,58,60,-1,-1,-1,-1,-1,-1,-1,-1,-1,-1,-1,-1,-1,-1,-1,-1,-1,-1,-1,-1,-1,-1,-1,-1,-1,-1,-1,-1,-1,-1],"split_conditions":[1E1,3E0,5E0,4E0,3.3333333E0,3.5E0,8E0,3.6E1,5.8333335E0,1.6666666E0,3E0,2.2E1,7E0,3.2E1,9E0,1.125E1,-1.44609185E-2,3E1,2E0,4.9583335E0,3.9333334E0,5.5E0,8.791667E0,1E0,9.916667E0,1.3E1,6.1666665E0,1.2E1,1.2E1,3.5333333E0,1.3E1,8.1288135E-3,1.8165832E-3,2.974174E-3,-1.568158E-3,1.2212306E-2,6.1810636E-3,-1.1416764E-2,2.9607858E-3,-2.1463289E-4,8.518853E-3,8.090126E-3,-1.265274E-2,3.3639323E-3,-2.2793082E-3,-1.5493612E-4,-3.321485E-3,-2.8803863E-3,-8.469643E-3,4.248495E-3,7.940661E-4,-4.8620248E-4,-7.0511214E-3,-2.9180988E-3,-1.2774668E-2,-0E0,-1.3666279E-2,-5.1879846E-3,4.4371086E-4,-6.2309024E-3,-1.2094869E-2],"split_indices":[0,20,20,0,35,35,31,8,35,31,8,8,31,8,20,21,0,8,8,34,29,29,34,10,34,0,35,20,0,29,8,0,0,0,0,0,0,0,0,0,0,0,0,0,0,0,0,0,0,0,0,0,0,0,0,0,0,0,0,0,0],"split_type":[0,0,0,0,0,0,0,0,0,0,0,0,0,0,0,0,0,0,0,0,0,0,0,0,0,0,0,0,0,0,0,0,0,0,0,0,0,0,0,0,0,0,0,0,0,0,0,0,0,0,0,0,0,0,0,0,0,0,0,0,0],"sum_hessian":[1.1235749E5,4.331355E4,6.904394E4,3.0247994E4,1.3065557E4,4.4869008E4,2.4174932E4,8.720666E3,2.1527328E4,7.515817E3,5.5497397E3,2.9624443E4,1.52445625E4,1.848087E4,5.694063E3,8.697419E3,2.324737E1,1.8883717E4,2.643611E3,4.309011E2,7.084916E3,8.323992E2,4.7173403E3,2.1995557E4,7.628888E3,1.1270531E4,3.9740317E3,1.7824414E4,6.564565E2,2.580777E3,3.1132856E3,6.411945E3,2.2854739E3,1.711832E4,1.7653971E3,3.378262E2,2.305785E3,3.0226273E2,1.2863835E2,6.9296953E3,1.552207E2,8.1665137E2,1.5747822E1,3.4711282E3,1.2462122E3,1.9001178E4,2.994378E3,6.68806E3,9.4082855E2,3.876078E3,7.394453E3,3.6559421E3,3.1808963E2,1.7516809E4,3.0760385E2,1.2827507E2,5.281814E2,1.9372626E3,6.435145E2,1.8852206E3,1.2280651E3],"tree_param":{"num_deleted":"0","num_feature":"38","num_nodes":"61","size_leaf_vector":"1"}},{"base_weights":[7.2411285E-3,-2.6998264E-1,3.1786412E-1,-1.2461037E-1,-5.191725E-1,2.0097293E-1,4.963925E-1,-2.7467784E-1,3.715503E-1,-8.150555E-1,-2.4448685E-1,-7.110868E-2,2.7592996E-1,6.649876E-1,3.04293E-1,-2.2420426E-1,-1.303405E0,4.680815E-1,-2.2646719E-1,-6.746823E-1,-1.3000273E0,-3.637039E-1,-4.6069324E-2,-9.01607E-1,-3.050218E-3,7.7774733E-1,2.4788657E-1,6.96825E-1,-4.0623567E-1,4.5990065E-1,5.3253874E-2,-1.5893548E-3,-6.293282E-3,-1.798904E-2,-1.0460615E-2,6.4926315E-3,2.5791428E-3,-6.1095576E-3,6.6887215E-3,-8.123215E-3,-2.459062E-3,-1.4133756E-2,-6.253992E-3,-5.4906677E-3,-3.383185E-4,-1.7817556E-3,3.8655698E-3,-1.8661956E-3,-1.2328448E-2,2.6745745E-4,-1.4821491E-2,1.0166207E-2,2.2722929E-4,4.79431E-3,1.8986115E-3,6.224635E-3,9.925207E-3,-1.7596928E-2,-4.0588234E-4,5.0033713E-3,-8.142062E-3,1.8989505E-3,-3.048687E-3],"categories":[],"categories_nodes":[],"categories_segments":[],"categories_sizes":[],"default_left":[0,0,0,0,0,0,0,0,0,0,0,0,0,0,0,0,0,0,0,0,0,0,0,0,0,0,0,0,0,0,0,0,0,0,0,0,0,0,0,0,0,0,0,0,0,0,0,0,0,0,0,0,0,0,0,0,0,0,0,0,0,0,0],"id":9,"left_children":[1,3,5,7,9,11,13,15,17,19,21,23,25,27,29,31,33,35,37,39,41,43,45,47,49,51,53,55,57,59,61,-1,-1,-1,-1,-1,-1,-1,-1,-1,-1,-1,-1,-1,-1,-1,-1,-1,-1,-1,-1,-1,-1,-1,-1,-1,-1,-1,-1,-1,-1,-1,-1],"loss_changes":[9.656635E3,2.143963E3,1.1009116E3,2.7878738E3,1.7688594E3,6.53041E2,6.729536E2,1.486269E3,5.0322815E2,7.025088E2,2.6667798E2,3.875594E2,3.485946E2,3.82208E2,3.8095105E2,7.219298E2,1.4922119E2,2.8133203E2,4.1868835E2,4.7698242E2,1.669248E2,4.302713E2,2.4390912E2,1.1719858E2,2.863665E2,2.345625E2,3.1676758E2,2.2846729E2,1.5382294E2,3.1304614E2,1.8423854E2,0E0,0E0,0E0,0E0,0E0,0E0,0E0,0E0,0E0,0E0,0E0,0E0,0E0,0E0,0E0,0E0,0E0,0E0,0E0,0E0,0E0,0E0,0E0,0E0,0E0,0E0,0E0,0E0,0E0,0E0,0E0,0E0],"parents":[2147483647,0,0,1,1,2,2,3,3,4,4,5,5,6,6,7,7,8,8,9,9,10,10,11,11,12,12,13,13,14,14,15,15,16,16,17,17,18,18,19,19,20,20,21,21,22,22,23,23,24,24,25,25,26,26,27,27,28,28,29,29,30,30],"right_children":[2,4,6,8,10,12,14,16,18,20,22,24,26,28,30,32,34,36,38,40,42,44,46,48,50,52,54,56,58,60,62,-1,-1,-1,-1,-1,-1,-1,-1,-1,-1,-1,-1,-1,-1,-1,-1,-1,-1,-1,-1,-1,-1,-1,-1,-1,-1,-1,-1,-1,-1,-1,-1],"split_conditions":[4.375E-1,8E0,6.25E-1,7E0,1.4E1,3.55E1,8E0,1.25E2,7.75E1,7.6666665E0,6.25E-2,2.6E1,1E0,9.8E1,4.8125E0,9E0,2.3666666E0,6E0,1.1E1,3.4375E0,1.1E1,1.12E1,3.4666667E0,8.2E0,3.5E1,5.3E1,4E1,9E0,6E0,9E1,4.65E1,-1.5893548E-3,-6.293282E-3,-1.798904E-2,-1.0460615E-2,6.4926315E-3,2.5791428E-3,-6.1095576E-3,6.6887215E-3,-8.123215E-3,-2.459062E-3,-1.4133756E-2,-6.253992E-3,-5.4906677E-3,-3.383185E-4,-1.7817556E-3,3.8655698E-3,-1.8661956E-3,-1.2328448E-2,2.6745745E-4,-1.4821491E-2,1.0166207E-2,2.2722929E-4,4.79431E-3,1.8986115E-3,6.224635E-3,9.925207E-3,-1.7596928E-2,-4.0588234E-4,5.0033713E-3,-8.142062E-3,1.8989505E-3,-3.048687E-3],"split_indices":[19,13,19,13,13,22,13,22,22,31,21,22,31,22,21,31,29,31,16,21,16,26,29,26,22,22,22,21,16,22,22,0,0,0,0,0,0,0,0,0,0,0,0,0,0,0,0,0,0,0,0,0,0,0,0,0,0,0,0,0,0,0,0],"split_type":[0,0,0,0,0,0,0,0,0,0,0,0,0,0,0,0,0,0,0,0,0,0,0,0,0,0,0,0,0,0,0,0,0,0,0,0,0,0,0,0,0,0,0,0,0,0,0,0,0,0,0,0,0,0,0,0,0,0,0,0,0,0,0],"sum_hessian":[1.12124664E5,5.924296E4,5.2881703E4,3.742975E4,2.181321E4,3.1976695E4,2.0905008E4,2.8744834E4,8.684917E3,1.0489524E4,1.13236875E4,6.898093E3,2.5078602E4,1.1116139E4,9.78887E3,2.7411361E4,1.3334724E3,7.483481E3,1.2014364E3,8.152685E3,2.3368386E3,7.0605063E3,4.263181E3,5.126429E2,6.38545E3,1.3117427E3,2.376686E4,1.0800392E4,3.157472E2,6.0320835E3,3.7567861E3,2.3622703E4,3.7886587E3,4.375013E2,8.9597107E2,4.0033557E3,3.4801255E3,8.443978E2,3.5703854E2,6.161542E3,1.9911433E3,1.9903203E3,3.465184E2,4.5115913E3,2.548915E3,3.2743738E3,9.888074E2,1.6863647E2,3.440064E2,6.264107E3,1.2134323E2,9.916176E2,3.2012503E2,4.741971E3,1.9024889E4,8.65557E3,2.1448206E3,5.9736813E1,2.5601038E2,5.852934E3,1.7914963E2,2.7277007E3,1.0290853E3],"tree_param":{"num_deleted":"0","num_feature":"38","num_nodes":"63","size_leaf_vector":"1"}},{"base_weights":[6.049298E-4,2.795349E-1,-3.6489058E-1,4.812268E-1,1.0751969E-1,-2.3525313E-1,-5.7635564E-1,5.8060503E-1,3.6733544E-1,2.3978877E-1,-7.8097045E-2,-3.8167655E-1,2.471778E-1,-8.611571E-1,-2.813279E-1,7.5699586E-1,3.6449575E-1,3.790194E-1,-6.3057756E-1,2.4845494E-1,-1.7915176E-2,-1.4862324E-1,3.7470642E-1,-2.4878676E-1,-5.172305E-1,5.443617E-1,-7.52509E-2,-4.3527475E-1,-9.638314E-1,-2.6094097E-1,-1.816835E-2,6.2914626E-3,1.214594E-2,2.7783886E-3,7.5134877E-3,1.429849E-3,6.142233E-3,7.497467E-3,-1.3828288E-2,1.0296799E-3,7.3979185E-3,-3.5610348E-3,1.0807053E-3,-4.5983484E-3,5.761247E-3,-3.5593363E-3,-0E0,-4.339041E-3,-9.723375E-3,5.5489317E-3,-1.2070498E-2,1.9568487E-3,-2.1390356E-3,-6.597434E-3,1.5930248E-3,-1.0611739E-2,-5.5393525E-3,-5.7064136E-4,-7.6149264E-3],"categories":[],"categories_nodes":[],"categories_segments":[],"categories_sizes":[],"default_left":[0,0,0,0,0,0,0,0,0,0,0,0,0,0,0,0,0,0,0,0,0,0,0,0,0,0,0,0,0,0,0,0,0,0,0,0,0,0,0,0,0,0,0,0,0,0,0,0,0,0,0,0,0,0,0,0,0,0,0],"id":10,"left_children":[1,3,5,7,9,11,13,15,17,19,21,23,25,27,29,31,33,35,37,39,-1,41,43,45,47,49,51,53,55,57,-1,-1,-1,-1,-1,-1,-1,-1,-1,-1,-1,-1,-1,-1,-1,-1,-1,-1,-1,-1,-1,-1,-1,-1,-1,-1,-1,-1,-1],"loss_changes":[1.1380822E4,2.1947334E3,1.3211279E3,3.2543604E2,8.400692E2,2.118378E3,1.5366313E3,5.8683105E2,1.5960376E2,3.5013843E2,4.5390564E2,4.111543E2,6.703867E2,4.0073877E2,2.730697E2,4.8865137E2,2.3017883E2,7.443458E2,1.7234598E2,1.4193672E3,0E0,6.569877E2,3.2375732E2,3.1081256E2,4.2397632E2,6.9819336E1,1.2613498E2,2.4652701E2,2.9046387E2,9.075363E2,0E0,0E0,0E0,0E0,0E0,0E0,0E0,0E0,0E0,0E0,0E0,0E0,0E0,0E0,0E0,0E0,0E0,0E0,0E0,0E0,0E0,0E0,0E0,0E0,0E0,0E0,0E0,0E0,0E0],"parents":[2147483647,0,0,1,1,2,2,3,3,4,4,5,5,6,6,7,7,8,8,9,9,10,10,11,11,12,12,13,13,14,14,15,15,16,16,17,17,18,18,19,19,21,21,22,22,23,23,24,24,25,25,26,26,27,27,28,28,29,29],"right_children":[2,4,6,8,10,12,14,16,18,20,22,24,26,28,30,32,34,36,38,40,-1,42,44,46,48,50,52,54,56,58,-1,-1,-1,-1,-1,-1,-1,-1,-1,-1,-1,-1,-1,-1,-1,-1,-1,-1,-1,-1,-1,-1,-1,-1,-1,-1,-1,-1,-1],"split_conditions":[1.08E1,8.25E0,8E0,8E0,8E0,7E0,1.5E1,1E0,7E0,2E0,6E0,1.275E1,1.26E1,1.14E1,6E0,7E0,7E0,1.4E1,5E0,7E0,-1.7915176E-2,1.5E1,1.1E1,1.225E1,7E0,2E0,6E0,6.5E1,7E1,2.1E1,-1.816835E-2,6.2914626E-3,1.214594E-2,2.7783886E-3,7.5134877E-3,1.429849E-3,6.142233E-3,7.497467E-3,-1.3828288E-2,1.0296799E-3,7.3979185E-3,-3.5610348E-3,1.0807053E-3,-4.5983484E-3,5.761247E-3,-3.5593363E-3,-0E0,-4.339041E-3,-9.723375E-3,5.5489317E-3,-1.2070498E-2,1.9568487E-3,-2.1390356E-3,-6.597434E-3,1.5930248E-3,-1.0611739E-2,-5.5393525E-3,-5.7064136E-4,-7.6149264E-3],"split_indices":[18,18,13,13,13,13,13,20,23,14,32,18,18,18,23,13,13,13,18,13,0,13,13,18,32,14,5,25,25,13,0,0,0,0,0,0,0,0,0,0,0,0,0,0,0,0,0,0,0,0,0,0,0,0,0,0,0,0,0],"split_type":[0,0,0,0,0,0,0,0,0,0,0,0,0,0,0,0,0,0,0,0,0,0,0,0,0,0,0,0,0,0,0,0,0,0,0,0,0,0,0,0,0,0,0,0,0,0,0,0,0,0,0,0,0,0,0,0,0,0,0],"sum_hessian":[1.1162249E5,6.331395E4,4.8308547E4,2.9129223E4,3.4184727E4,2.9966643E4,1.8341904E4,1.5526355E4,1.3602868E4,1.9969053E4,1.4215675E4,2.2995055E4,6.971588E3,9.320688E3,9.021216E3,8.531471E3,6.9948843E3,1.3452706E4,1.5016205E2,1.9891809E4,7.724391E1,1.2309709E4,1.9059656E3,1.1632831E4,1.1362223E4,3.63015E3,3.3414382E3,1.8233818E3,7.4973066E3,8.913021E3,1.08194824E2,6.6864937E3,1.8449775E3,5.7309146E3,1.2639695E3,6.726481E3,6.7262246E3,5.1570095E1,9.859195E1,1.5358626E4,4.5331816E3,6.8123804E3,5.4973286E3,3.6592877E2,1.5400367E3,8.1330933E3,3.4997378E3,9.620968E3,1.7412554E3,3.614908E3,1.5241939E1,1.1228346E3,2.2186035E3,1.3267695E3,4.966123E2,6.04362E3,1.4536865E3,6.3432E3,2.5698208E3],"tree_param":{"num_deleted":"0","num_feature":"38","num_nodes":"59","size_leaf_vector":"1"}},{"base_weights":[1.0511481E-2,3.10773E-1,-3.5295954E-1,4.8615935E-1,1.4337833E-1,-3.3397254E-1,-1.2149597E0,4.91855E-1,-1.7858202E-2,1.5158816E-1,-1.5347012E0,-3.1167814E-1,-1.0889395E0,-4.3776515E-1,-1.4251913E0,4.2660117E-1,6.76875E-1,-2.4249226E-1,2.482722E-1,-1.448254E-1,-1.8391466E-2,-2.8783494E-1,-9.9845105E-1,-8.901405E-1,-1.882566E-2,-8.801419E-1,1.4813268E-2,-1.0804967E0,-1.7577026E0,5.7686274E-3,3.1287326E-3,7.04965E-3,1.8627757E-3,-2.8810403E-4,-7.247367E-3,3.9323154E-3,1.5291391E-3,-1.2204214E-2,8.824784E-3,-1.6769901E-3,-4.2059813E-3,-1.4802646E-3,-1.0780526E-2,-1.3542338E-2,-1.5430106E-3,2.4886536E-3,-1.4520665E-2,-3.1235407E-4,-1.5353957E-2,-8.807895E-3,-1.871511E-2],"categories":[],"categories_nodes":[],"categories_segments":[],"categories_sizes":[],"default_left":[0,0,0,0,0,0,0,0,0,0,0,0,0,0,0,0,0,0,0,0,0,0,0,0,0,0,0,0,0,0,0,0,0,0,0,0,0,0,0,0,0,0,0,0,0,0,0,0,0,0,0],"id":11,"left_children":[1,3,5,7,9,11,13,15,-1,17,19,21,23,25,27,29,31,33,35,37,-1,39,41,43,-1,45,-1,47,49,-1,-1,-1,-1,-1,-1,-1,-1,-1,-1,-1,-1,-1,-1,-1,-1,-1,-1,-1,-1,-1,-1],"loss_changes":[1.2210389E4,1.7965352E3,8.2083154E2,3.8932422E2,4.2965125E2,8.271211E2,1.6727026E2,3.5496826E2,0E0,1.1901555E3,5.6321625E1,7.82167E2,2.0305286E2,2.1453665E2,7.533862E1,3.7360962E2,1.03305176E2,6.312278E2,3.4466638E2,4.9E1,0E0,7.3978564E2,1.0403589E2,3.8574835E2,0E0,1.3787434E2,0E0,2.0439471E2,2.1703735E1,0E0,0E0,0E0,0E0,0E0,0E0,0E0,0E0,0E0,0E0,0E0,0E0,0E0,0E0,0E0,0E0,0E0,0E0,0E0,0E0,0E0,0E0],"parents":[2147483647,0,0,1,1,2,2,3,3,4,4,5,5,6,6,7,7,9,9,10,10,11,11,12,12,13,13,14,14,15,15,16,16,17,17,18,18,19,19,21,21,22,22,23,23,25,25,27,27,28,28],"right_children":[2,4,6,8,10,12,14,16,-1,18,20,22,24,26,28,30,32,34,36,38,-1,40,42,44,-1,46,-1,48,50,-1,-1,-1,-1,-1,-1,-1,-1,-1,-1,-1,-1,-1,-1,-1,-1,-1,-1,-1,-1,-1,-1],"split_conditions":[1.06E1,8.333333E0,2E0,2E0,2E0,6E0,1.18E1,7.1428575E-2,-1.7858202E-2,3.55E1,1.6666666E0,1.125E2,7.5E1,1.175E1,3E0,6.25E-2,2.0625E0,9.8E0,4.6E1,1.1E1,-1.8391466E-2,1.275E1,5.3333335E0,5.6E1,-1.882566E-2,1.1E1,1.4813268E-2,5.6E0,4.35E1,5.7686274E-3,3.1287326E-3,7.04965E-3,1.8627757E-3,-2.8810403E-4,-7.247367E-3,3.9323154E-3,1.5291391E-3,-1.2204214E-2,8.824784E-3,-1.6769901E-3,-4.2059813E-3,-1.4802646E-3,-1.0780526E-2,-1.3542338E-2,-1.5430106E-3,2.4886536E-3,-1.4520665E-2,-3.1235407E-4,-1.5353957E-2,-8.807895E-3,-1.871511E-2],"split_indices":[18,18,14,14,14,23,18,36,0,9,27,9,9,18,17,24,24,18,9,26,0,18,30,9,0,18,0,26,9,0,0,0,0,0,0,0,0,0,0,0,0,0,0,0,0,0,0,0,0,0,0],"split_type":[0,0,0,0,0,0,0,0,0,0,0,0,0,0,0,0,0,0,0,0,0,0,0,0,0,0,0,0,0,0,0,0,0,0,0,0,0,0,0,0,0,0,0,0,0,0,0,0,0,0,0],"sum_hessian":[1.1186908E5,6.1266453E4,5.0602625E4,2.9903771E4,3.1362682E4,4.9524945E4,1.0776787E3,2.983578E4,6.799061E1,3.1218107E4,1.445759E2,4.8117875E4,1.4070719E3,2.3707904E2,8.4059973E2,2.2085797E4,7.749983E3,6.1419927E3,2.5076113E4,2.9604998E1,1.149709E2,4.6517207E4,1.6006681E3,1.1401116E3,2.6696033E2,1.9701686E2,4.006219E1,4.3177405E2,4.0882568E2,9.49102E3,1.2594778E4,7.3215986E3,4.283843E2,4.2655654E3,1.8764272E3,9.929067E3,1.5147046E4,1.5246329E1,1.4358667E1,2.4440082E4,2.2077123E4,1.4194118E2,1.4587269E3,6.930473E2,4.470642E2,6.58111E1,1.3120575E2,1.3483705E2,2.9693698E2,5.7019062E1,3.518066E2],"tree_param":{"num_deleted":"0","num_feature":"38","num_nodes":"51","size_leaf_vector":"1"}},{"base_weights":[-3.6158352E-3,1.3206613E-1,-1.5818535E-1,5.629815E-2,5.9839165E-1,-1.0596876E-1,-8.154525E-1,2.1350594E-1,-3.4627497E-1,3.371188E-1,6.759721E-1,2.5533515E-1,-3.650988E-1,-1.0175713E0,-3.7087074E-1,4.0665114E-1,4.777532E-2,-8.5326594E-1,-2.8333887E-1,3.934022E-2,6.803768E-1,-1.7094206E-2,6.948096E-1,-6.353923E-2,3.3462903E-1,-2.2553314E-1,-4.7914743E-1,-8.784501E-1,-1.5792361E0,1.5132163E-1,-9.0745944E-1,-1.3436656E-2,4.2471928E-3,-3.3196947E-3,1.4277349E-3,-1.00290645E-2,3.3132252E-3,-1.3817059E-3,-5.755306E-3,-1.3443498E-3,6.0240063E-3,-1.19701065E-2,7.2240946E-3,7.718377E-3,3.2495826E-3,7.7894446E-4,-9.494162E-3,5.124987E-3,2.738226E-3,-8.884452E-3,-1.7920618E-3,-1.3435313E-2,-4.5303414E-3,-1.0253915E-2,-4.277313E-3,-1.3226928E-2,-1.8382031E-2,-8.685944E-3,3.6274786E-3,1.2475436E-3,-1.1071363E-2],"categories":[],"categories_nodes":[],"categories_segments":[],"categories_sizes":[],"default_left":[0,0,0,0,0,0,0,0,0,0,0,0,0,0,0,0,0,0,0,0,0,0,0,0,0,0,0,0,0,0,0,0,0,0,0,0,0,0,0,0,0,0,0,0,0,0,0,0,0,0,0,0,0,0,0,0,0,0,0,0,0],"id":12,"left_children":[1,3,5,7,9,11,13,15,17,19,21,23,25,27,29,31,33,35,37,39,41,-1,43,45,47,49,51,53,55,57,59,-1,-1,-1,-1,-1,-1,-1,-1,-1,-1,-1,-1,-1,-1,-1,-1,-1,-1,-1,-1,-1,-1,-1,-1,-1,-1,-1,-1,-1,-1],"loss_changes":[2.3371667E3,2.0942214E3,1.784817E3,3.2312183E3,1.6333618E2,4.521235E3,3.372964E2,1.1741005E3,4.5230798E2,1.939144E2,2.9167285E2,5.1080737E2,4.4477783E2,1.8794751E2,3.4297192E2,5.3731006E2,7.1340125E2,2.8340076E2,5.388821E2,1.0375621E2,7.460959E1,0E0,1.7528906E2,5.060531E2,1.714082E2,3.8484784E2,3.3927686E2,1.3317944E2,7.2370605E0,1.3387694E2,1.279577E2,0E0,0E0,0E0,0E0,0E0,0E0,0E0,0E0,0E0,0E0,0E0,0E0,0E0,0E0,0E0,0E0,0E0,0E0,0E0,0E0,0E0,0E0,0E0,0E0,0E0,0E0,0E0,0E0,0E0,0E0],"parents":[2147483647,0,0,1,1,2,2,3,3,4,4,5,5,6,6,7,7,8,8,9,9,10,10,11,11,12,12,13,13,14,14,15,15,16,16,17,17,18,18,19,19,20,20,22,22,23,23,24,24,25,25,26,26,27,27,28,28,29,29,30,30],"right_children":[2,4,6,8,10,12,14,16,18,20,22,24,26,28,30,32,34,36,38,40,42,-1,44,46,48,50,52,54,56,58,60,-1,-1,-1,-1,-1,-1,-1,-1,-1,-1,-1,-1,-1,-1,-1,-1,-1,-1,-1,-1,-1,-1,-1,-1,-1,-1,-1,-1,-1,-1],"split_conditions":[3E0,1E0,9.4E1,1.1125E1,3.35E1,1.08E1,3.6666667E0,8.25E0,3.25E1,2.3333333E0,2E0,3.35E1,1.2666667E1,2E0,1.18E1,2.55E1,3.55E1,7.3333335E0,6.1E1,9E0,2E1,-1.7094206E-2,6.3E1,1.02E1,8.25E0,2.9E1,2.2E0,1E1,1.3333334E0,7.8E0,1.01E2,-1.3436656E-2,4.2471928E-3,-3.3196947E-3,1.4277349E-3,-1.00290645E-2,3.3132252E-3,-1.3817059E-3,-5.755306E-3,-1.3443498E-3,6.0240063E-3,-1.19701065E-2,7.2240946E-3,7.718377E-3,3.2495826E-3,7.7894446E-4,-9.494162E-3,5.124987E-3,2.738226E-3,-8.884452E-3,-1.7920618E-3,-1.3435313E-2,-4.5303414E-3,-1.0253915E-2,-4.277313E-3,-1.3226928E-2,-1.8382031E-2,-8.685944E-3,3.6274786E-3,1.2475436E-3,-1.1071363E-2],"split_indices":[6,2,22,18,22,18,33,18,22,33,26,22,18,14,18,22,22,33,22,16,22,0,22,18,18,22,26,16,33,26,22,0,0,0,0,0,0,0,0,0,0,0,0,0,0,0,0,0,0,0,0,0,0,0,0,0,0,0,0,0,0],"split_type":[0,0,0,0,0,0,0,0,0,0,0,0,0,0,0,0,0,0,0,0,0,0,0,0,0,0,0,0,0,0,0,0,0,0,0,0,0,0,0,0,0,0,0,0,0,0,0,0,0,0,0,0,0,0,0,0,0,0,0,0,0],"sum_hessian":[1.1142297E5,5.9327004E4,5.209596E4,5.10472E4,8.279806E3,4.8273562E4,3.8223997E3,3.6718926E4,1.4328273E4,1.9130815E3,6.3667246E3,2.0157111E4,2.811645E4,2.6169116E3,1.2054883E3,1.6943922E4,1.9775004E4,1.567276E3,1.2760997E4,1.0332621E3,8.7981946E2,4.371428E1,6.3230103E3,4.0069639E3,1.6150147E4,1.2664979E4,1.5451471E4,2.1160637E3,5.0084784E2,6.106533E2,5.948349E2,1.6617746E2,1.6777744E4,3.9472527E3,1.5827752E4,1.3946997E3,1.725762E2,8.539121E3,4.221876E3,7.895782E2,2.4368385E2,1.3491714E1,8.6632776E2,5.22011E3,1.1029005E3,3.4578955E3,5.4906836E2,4.0886824E3,1.2061465E4,8.1472534E2,1.1850253E4,4.3938052E2,1.5012091E4,1.5840555E3,5.320081E2,2.7889774E2,2.219501E2,9.8679276E1,5.1197406E2,9.4407135E1,5.0042773E2],"tree_param":{"num_deleted":"0","num_feature":"38","num_nodes":"61","size_leaf_vector":"1"}},{"base_weights":[-1.1332438E-2,2.8136796E-1,-4.068067E-1,4.7557095E-1,1.16200976E-1,-5.056043E-1,-2.4332097E-1,5.794471E-1,3.3610463E-1,1.4003985E-1,-6.9499856E-1,-4.8362246E-1,-1.3378463E0,-1.370908E-1,-4.263826E-1,7.5766915E-1,3.891381E-1,1.9467847E-1,5.409202E-1,2.6964223E-1,-4.7098566E-2,-9.012122E-1,5.4018396E-1,-3.654857E-1,-6.590407E-1,-1.8450528E-2,-8.482184E-1,-4.8024718E-2,-4.214695E-1,-2.5215584E-1,-6.9560176E-1,6.388434E-3,1.1821247E-2,6.540697E-3,1.5271163E-3,4.741291E-5,3.4138812E-3,4.934976E-3,1.0202426E-2,1.4996129E-3,6.937633E-3,6.882547E-4,-4.76545E-3,-2.7800456E-3,-1.1346448E-2,-3.1930336E-3,1.2967289E-2,-4.9253744E-3,1.2436163E-3,-8.553427E-3,-4.260247E-3,-1.1666399E-2,5.857085E-4,7.259473E-4,-3.254958E-3,-1.5290892E-3,-8.324852E-3,1.3745783E-3,-3.9366866E-3,-1.060353E-2,-4.0576155E-3],"categories":[],"categories_nodes":[],"categories_segments":[],"categories_sizes":[],"default_left":[0,0,0,0,0,0,0,0,0,0,0,0,0,0,0,0,0,0,0,0,0,0,0,0,0,0,0,0,0,0,0,0,0,0,0,0,0,0,0,0,0,0,0,0,0,0,0,0,0,0,0,0,0,0,0,0,0,0,0,0,0],"id":13,"left_children":[1,3,5,7,9,11,13,15,17,19,21,23,25,27,29,31,33,35,37,39,41,43,45,47,49,-1,51,53,55,57,59,-1,-1,-1,-1,-1,-1,-1,-1,-1,-1,-1,-1,-1,-1,-1,-1,-1,-1,-1,-1,-1,-1,-1,-1,-1,-1,-1,-1,-1,-1],"loss_changes":[1.2819304E4,2.0390122E3,7.577446E2,4.194453E2,6.643673E2,5.268301E2,3.4344556E2,5.620752E2,3.5940186E2,8.116374E2,2.5406207E2,5.879961E2,1.6663489E2,2.8376746E2,3.0133704E2,4.2431396E2,5.0519287E2,2.0569379E2,1.07791504E2,9.999369E2,6.82318E2,1.1638678E2,9.84726E1,1.0669043E3,5.192676E2,0E0,1.1825253E2,2.8855194E2,2.9172205E2,2.2007474E2,2.6190515E2,0E0,0E0,0E0,0E0,0E0,0E0,0E0,0E0,0E0,0E0,0E0,0E0,0E0,0E0,0E0,0E0,0E0,0E0,0E0,0E0,0E0,0E0,0E0,0E0,0E0,0E0,0E0,0E0,0E0,0E0],"parents":[2147483647,0,0,1,1,2,2,3,3,4,4,5,5,6,6,7,7,8,8,9,9,10,10,11,11,12,12,13,13,14,14,15,15,16,16,17,17,18,18,19,19,20,20,21,21,22,22,23,23,24,24,26,26,27,27,28,28,29,29,30,30],"right_children":[2,4,6,8,10,12,14,16,18,20,22,24,26,28,30,32,34,36,38,40,42,44,46,48,50,-1,52,54,56,58,60,-1,-1,-1,-1,-1,-1,-1,-1,-1,-1,-1,-1,-1,-1,-1,-1,-1,-1,-1,-1,-1,-1,-1,-1,-1,-1,-1,-1,-1,-1],"split_conditions":[1.08E1,8.25E0,2.6E0,1E0,3.2E1,2E0,1.6E1,9E0,2.5333333E0,8E0,1.1E1,8E0,2.3666666E0,9E0,8E0,7E0,3.75E0,1.3333334E0,9E0,7E0,1.02E1,2E0,1.7E1,7E0,1.5E1,-1.8450528E-2,3.3333333E0,8E0,3.6666667E0,4E0,1.5E1,6.388434E-3,1.1821247E-2,6.540697E-3,1.5271163E-3,4.741291E-5,3.4138812E-3,4.934976E-3,1.0202426E-2,1.4996129E-3,6.937633E-3,6.882547E-4,-4.76545E-3,-2.7800456E-3,-1.1346448E-2,-3.1930336E-3,1.2967289E-2,-4.9253744E-3,1.2436163E-3,-8.553427E-3,-4.260247E-3,-1.1666399E-2,5.857085E-4,7.259473E-4,-3.254958E-3,-1.5290892E-3,-8.324852E-3,1.3745783E-3,-3.9366866E-3,-1.060353E-2,-4.0576155E-3],"split_indices":[18,18,29,20,8,14,8,13,29,13,16,13,29,20,13,13,21,33,33,13,18,13,13,13,13,0,33,13,33,16,13,0,0,0,0,0,0,0,0,0,0,0,0,0,0,0,0,0,0,0,0,0,0,0,0,0,0,0,0,0,0],"split_type":[0,0,0,0,0,0,0,0,0,0,0,0,0,0,0,0,0,0,0,0,0,0,0,0,0,0,0,0,0,0,0,0,0,0,0,0,0,0,0,0,0,0,0,0,0,0,0,0,0,0,0,0,0,0,0,0,0,0,0,0,0],"sum_hessian":[1.1072751E5,6.362873E4,4.709878E4,2.9229469E4,3.439926E4,2.9336914E4,1.7761867E4,1.6727234E4,1.2502234E4,3.342644E4,9.7281903E2,2.859628E4,7.4063556E2,1.1257689E4,6.5041777E3,8.619007E3,8.1082266E3,7.4123037E3,5.089931E3,1.9756828E4,1.3669614E4,8.3734564E2,1.3547334E2,1.7111258E4,1.14850205E4,3.512598E2,3.8937576E2,8.58701E3,2.67068E3,3.9637275E3,2.54045E3,6.753092E3,1.865915E3,3.8117979E3,4.2964287E3,3.2423198E3,4.169984E3,4.65031E3,4.3962082E2,1.5421615E4,4.3352124E3,1.0763127E4,2.9064875E3,2.3585611E2,6.0148956E2,6.345936E1,7.201399E1,1.3591988E4,3.519269E3,6.2164575E3,5.2685635E3,2.8914438E2,1.00231384E2,5.9812554E3,2.6057546E3,1.6254818E3,1.0451981E3,1.0504966E3,2.913231E3,1.1120386E3,1.4284114E3],"tree_param":{"num_deleted":"0","num_feature":"38","num_nodes":"61","size_leaf_vector":"1"}},{"base_weights":[-3.421392E-5,1.1684014E-1,-3.5448125E-1,2.9922396E-1,-7.036756E-2,-3.3428413E-1,-1.8792255E-2,5.95445E-1,2.1974076E-1,-4.1291784E-2,-4.0494257E-1,-4.089137E-2,-4.019722E-1,9.375851E-1,5.2540714E-1,2.4350742E-1,-4.6679664E-1,-1.8135948E-1,5.741563E-2,6.5273476E-1,-6.034745E-1,3.2032836E-2,-9.251935E-1,-3.7195888E-1,-1.4212663E0,9.611209E-3,-1.1344481E-2,5.835959E-3,2.8279866E-3,7.869916E-4,3.2828758E-3,-3.1736912E-3,-1.50695E-2,-1.6612437E-3,-7.2996775E-3,2.192805E-3,-5.702476E-4,8.623874E-3,-1.6002566E-2,-7.3978994E-3,-4.1147156E-4,3.3350214E-3,-1.7103069E-3,-1.1892657E-2,4.692262E-3,-2.0041957E-3,-5.0625107E-3,-4.5262575E-3,-1.5360109E-2],"categories":[],"categories_nodes":[],"categories_segments":[],"categories_sizes":[],"default_left":[0,0,0,0,0,0,0,0,0,0,0,0,0,0,0,0,0,0,0,0,0,0,0,0,0,0,0,0,0,0,0,0,0,0,0,0,0,0,0,0,0,0,0,0,0,0,0,0,0],"id":14,"left_children":[1,3,5,7,9,11,-1,13,15,17,19,21,23,25,27,29,31,33,35,37,39,41,43,45,47,-1,-1,-1,-1,-1,-1,-1,-1,-1,-1,-1,-1,-1,-1,-1,-1,-1,-1,-1,-1,-1,-1,-1,-1],"loss_changes":[4.6225903E3,2.8654023E3,8.4115186E2,9.9741846E2,4.0127292E2,5.4113477E2,0E0,2.0735645E2,5.4726306E2,5.27271E2,6.9576355E2,3.3420447E2,6.697825E2,8.073828E1,1.0180737E2,4.5157446E2,1.6528343E2,1.2824036E2,4.1449738E2,2.5432623E2,2.109513E2,2.916671E2,1.5143372E2,4.940227E2,5.912024E1,0E0,0E0,0E0,0E0,0E0,0E0,0E0,0E0,0E0,0E0,0E0,0E0,0E0,0E0,0E0,0E0,0E0,0E0,0E0,0E0,0E0,0E0,0E0,0E0],"parents":[2147483647,0,0,1,1,2,2,3,3,4,4,5,5,7,7,8,8,9,9,10,10,11,11,12,12,13,13,14,14,15,15,16,16,17,17,18,18,19,19,20,20,21,21,22,22,23,23,24,24],"right_children":[2,4,6,8,10,12,-1,14,16,18,20,22,24,26,28,30,32,34,36,38,40,42,44,46,48,-1,-1,-1,-1,-1,-1,-1,-1,-1,-1,-1,-1,-1,-1,-1,-1,-1,-1,-1,-1,-1,-1,-1,-1],"split_conditions":[5E0,1.1E1,6E0,4E0,6E0,1.1E1,-1.8792255E-2,4E0,3.2E1,4E0,2E0,4E0,3.2E1,6.666667E-1,4E0,2E0,4E0,1.0333333E1,1E0,3E0,6E0,8.75E0,8E0,9E0,2.9166667E0,9.611209E-3,-1.1344481E-2,5.835959E-3,2.8279866E-3,7.869916E-4,3.2828758E-3,-3.1736912E-3,-1.50695E-2,-1.6612437E-3,-7.2996775E-3,2.192805E-3,-5.702476E-4,8.623874E-3,-1.6002566E-2,-7.3978994E-3,-4.1147156E-4,3.3350214E-3,-1.7103069E-3,-1.1892657E-2,4.692262E-3,-2.0041957E-3,-5.0625107E-3,-4.5262575E-3,-1.5360109E-2],"split_indices":[20,0,17,0,17,0,0,32,8,5,8,17,8,37,23,23,23,32,20,20,32,30,20,20,30,0,0,0,0,0,0,0,0,0,0,0,0,0,0,0,0,0,0,0,0,0,0,0,0],"split_type":[0,0,0,0,0,0,0,0,0,0,0,0,0,0,0,0,0,0,0,0,0,0,0,0,0,0,0,0,0,0,0,0,0,0,0,0,0,0,0,0,0,0,0,0,0,0,0,0,0],"sum_hessian":[1.1155611E5,8.3890516E4,2.766559E4,4.249872E4,4.1391797E4,2.7314281E4,3.5130905E2,8.973342E3,3.3525375E4,3.8097793E4,3.2940051E3,5.1307383E3,2.2183543E4,1.5027499E3,7.470592E3,3.2412213E4,1.1131633E3,1.5759415E4,2.2338379E4,5.156671E2,2.7783381E3,4.7429624E3,3.8777573E2,2.1561168E4,6.2237573E2,1.4910146E3,1.1735221E1,6.007509E3,1.4630833E3,1.1026381E4,2.1385832E4,9.8384503E2,1.2931828E2,1.5347787E4,4.1162738E2,9.260334E3,1.3078045E4,4.7693768E2,3.8729412E1,2.2301714E3,5.4816675E2,1.9130759E3,2.8298865E3,3.2870715E2,5.9068565E1,9.485092E3,1.2076075E4,7.23527E1,5.50023E2],"tree_param":{"num_deleted":"0","num_feature":"38","num_nodes":"49","size_leaf_vector":"1"}},{"base_weights":[-6.80045E-3,5.7376217E-2,-4.778283E-1,-3.083285E-2,3.7698928E-1,-5.925714E-1,-2.1895991E-1,-7.5666E-3,-9.0875095E-1,2.513652E-1,5.4777193E-1,-5.477646E-1,-1.3023615E0,-2.9637876E-1,6.85825E-1,1.1416942E-1,-1.8947554E-1,-1.1879123E0,-3.3509928E-1,1.2895878E-1,4.3351558E-1,7.406189E-1,3.2194266E-1,-1.3584902E0,-5.0953907E-1,-1.3785988E0,5.858728E-3,-4.6185315E-1,1.6273622E-1,-1.4660803E-2,9.1418564E-1,-2.0472615E-4,5.647398E-3,-4.277759E-3,7.514661E-4,-1.4206865E-2,-3.0456474E-3,3.4349945E-3,-6.7376685E-3,3.0242237E-3,-5.9444405E-4,5.19935E-3,1.712316E-3,9.8465765E-3,5.663096E-3,2.3759094E-4,6.479716E-3,3.7236412E-3,-1.7169116E-2,-3.1615347E-3,-6.4074644E-3,-1.5677596E-2,-8.817524E-3,-3.6563508E-3,-1.3057866E-2,2.4823386E-3,-1.5888084E-2,1.2545752E-2,1.2879624E-3],"categories":[],"categories_nodes":[],"categories_segments":[],"categories_sizes":[],"default_left":[0,0,0,0,0,0,0,0,0,0,0,0,0,0,0,0,0,0,0,0,0,0,0,0,0,0,0,0,0,0,0,0,0,0,0,0,0,0,0,0,0,0,0,0,0,0,0,0,0,0,0,0,0,0,0,0,0,0,0],"id":15,"left_children":[1,3,5,7,9,11,13,15,17,19,21,23,25,27,29,31,33,35,37,39,41,43,45,47,49,51,-1,53,55,-1,57,-1,-1,-1,-1,-1,-1,-1,-1,-1,-1,-1,-1,-1,-1,-1,-1,-1,-1,-1,-1,-1,-1,-1,-1,-1,-1,-1,-1],"loss_changes":[3.365652E3,2.7624944E3,3.9323438E2,1.5650968E3,4.513213E2,2.8327808E2,2.8881848E2,1.6565675E3,3.0946252E2,2.7069403E2,3.8561743E2,2.593584E2,8.5698425E1,2.9032776E2,1.6682893E2,2.7194973E3,1.8928519E3,2.6413806E2,1.5449144E2,2.4062729E2,1.0846417E2,1.9663232E2,4.0126663E2,2.4690393E2,2.0704565E2,3.2053284E1,0E0,2.1916486E2,1.4966853E2,0E0,7.445984E1,0E0,0E0,0E0,0E0,0E0,0E0,0E0,0E0,0E0,0E0,0E0,0E0,0E0,0E0,0E0,0E0,0E0,0E0,0E0,0E0,0E0,0E0,0E0,0E0,0E0,0E0,0E0,0E0],"parents":[2147483647,0,0,1,1,2,2,3,3,4,4,5,5,6,6,7,7,8,8,9,9,10,10,11,11,12,12,13,13,14,14,15,15,16,16,17,17,18,18,19,19,20,20,21,21,22,22,23,23,24,24,25,25,27,27,28,28,30,30],"right_children":[2,4,6,8,10,12,14,16,18,20,22,24,26,28,30,32,34,36,38,40,42,44,46,48,50,52,-1,54,56,-1,58,-1,-1,-1,-1,-1,-1,-1,-1,-1,-1,-1,-1,-1,-1,-1,-1,-1,-1,-1,-1,-1,-1,-1,-1,-1,-1,-1,-1],"split_conditions":[9E0,5E-1,1.14E1,1E0,6.25E-1,1E0,6.25E-1,8E0,4E0,3E0,8E0,2.2E0,1.1E1,1.5E1,2.2666667E0,7E0,1.4E1,1.6E1,2E0,8E0,8.666667E0,5E0,1.5E1,1E0,9.8E0,2.4666667E0,5.858728E-3,8E0,1.3E1,-1.4660803E-2,2.8666666E0,-2.0472615E-4,5.647398E-3,-4.277759E-3,7.514661E-4,-1.4206865E-2,-3.0456474E-3,3.4349945E-3,-6.7376685E-3,3.0242237E-3,-5.9444405E-4,5.19935E-3,1.712316E-3,9.8465765E-3,5.663096E-3,2.3759094E-4,6.479716E-3,3.7236412E-3,-1.7169116E-2,-3.1615347E-3,-6.4074644E-3,-1.5677596E-2,-8.817524E-3,-3.6563508E-3,-1.3057866E-2,2.4823386E-3,-1.5888084E-2,1.2545752E-2,1.2879624E-3],"split_indices":[20,1,26,14,1,14,24,13,35,35,13,26,26,13,29,13,13,13,27,13,27,27,13,27,26,29,0,13,5,0,29,0,0,0,0,0,0,0,0,0,0,0,0,0,0,0,0,0,0,0,0,0,0,0,0,0,0,0,0],"split_type":[0,0,0,0,0,0,0,0,0,0,0,0,0,0,0,0,0,0,0,0,0,0,0,0,0,0,0,0,0,0,0,0,0,0,0,0,0,0,0,0,0,0,0,0,0,0,0,0,0,0,0,0,0,0,0,0,0,0,0],"sum_hessian":[1.1128345E5,9.79392E4,1.3344255E4,7.675324E4,2.118596E4,9.231703E3,4.1125522E3,7.4781875E4,1.971363E3,1.2226947E4,8.959014E3,8.699181E3,5.325227E2,3.7957847E3,3.1676752E2,4.4792332E4,2.9989543E4,1.3174937E3,6.538693E2,7.329735E3,4.8972124E3,4.8166187E3,4.142395E3,3.772756E2,8.321905E3,5.1519965E2,1.732307E1,2.7949282E3,1.0008565E3,2.5490093E1,2.9127744E2,3.448681E4,1.0305522E4,1.5783256E4,1.4206288E4,1.0366644E3,2.8082935E2,2.1470338E2,4.3916595E2,3.8222554E3,3.5074795E3,3.6697573E3,1.2274554E3,1.9861663E3,2.8304521E3,2.1723198E3,1.9700751E3,6.324012E1,3.140355E2,3.3827808E3,4.939124E3,3.5783688E2,1.5736272E2,2.5210835E3,2.7384476E2,9.616371E2,3.9219402E1,1.9762483E2,9.365258E1],"tree_param":{"num_deleted":"0","num_feature":"38","num_nodes":"59","size_leaf_vector":"1"}},{"base_weights":[3.413473E-3,2.8519398E-1,-3.7665352E-1,4.6486112E-1,1.346873E-1,-2.311836E-1,-5.096532E-1,3.661771E-1,6.221573E-1,4.2382595E-1,1.0372672E-1,-3.3855417E-1,-1.92195E-2,-4.7099787E-1,-1.07999E0,4.0301237E-1,-1.9900365E-1,6.385679E-1,-2.201437E-2,9.778623E-1,3.6349493E-1,5.6762114E-2,2.3520811E-1,-2.977175E-1,-1.0759022E0,1.1309603E-2,-5.3839284E-1,-4.5863435E-1,-1.8137118E-2,-1.1731975E0,-4.4395903E-1,4.1260454E-3,-1.3291408E-2,1.6723262E-4,-6.7802547E-3,7.032622E-3,4.867605E-3,2.5452757E-3,-1.6474258E-2,-1.7498292E-3,1.1102842E-2,4.338374E-3,-7.3473476E-4,-7.0949545E-4,1.0163499E-3,3.3696573E-3,7.817498E-4,-2.1169141E-3,-5.0107883E-3,-4.6722167E-3,-1.4627842E-2,-7.592055E-6,1.0436237E-2,2.8407618E-3,-1.2577305E-2,-5.582725E-3,-2.7614974E-3,-7.6333755E-3,-1.2870141E-2,-1.6081972E-2,-4.024367E-4],"categories":[],"categories_nodes":[],"categories_segments":[],"categories_sizes":[],"default_left":[0,0,0,0,0,0,0,0,0,0,0,0,0,0,0,0,0,0,0,0,0,0,0,0,0,0,0,0,0,0,0,0,0,0,0,0,0,0,0,0,0,0,0,0,0,0,0,0,0,0,0,0,0,0,0,0,0,0,0,0,0],"id":16,"left_children":[1,3,5,7,9,11,13,15,17,19,21,23,25,27,29,31,33,35,37,39,41,43,45,47,49,51,53,55,-1,57,59,-1,-1,-1,-1,-1,-1,-1,-1,-1,-1,-1,-1,-1,-1,-1,-1,-1,-1,-1,-1,-1,-1,-1,-1,-1,-1,-1,-1,-1,-1],"loss_changes":[1.1966341E4,1.7329932E3,9.172661E2,4.493125E2,3.1086847E2,5.1646765E2,5.392549E2,3.75823E2,1.2087988E2,1.060517E2,1.9401825E2,4.4788367E2,1.2308997E2,3.7371582E2,8.433191E1,2.8191968E2,1.1581877E2,1.0182764E2,1.3374417E2,5.3273254E1,9.514331E1,1.3362674E2,1.3106479E2,2.474237E2,1.743125E2,9.33273E1,2.605428E2,4.1593457E2,0E0,5.0291138E1,9.589933E1,0E0,0E0,0E0,0E0,0E0,0E0,0E0,0E0,0E0,0E0,0E0,0E0,0E0,0E0,0E0,0E0,0E0,0E0,0E0,0E0,0E0,0E0,0E0,0E0,0E0,0E0,0E0,0E0,0E0,0E0],"parents":[2147483647,0,0,1,1,2,2,3,3,4,4,5,5,6,6,7,7,8,8,9,9,10,10,11,11,12,12,13,13,14,14,15,15,16,16,17,17,18,18,19,19,20,20,21,21,22,22,23,23,24,24,25,25,26,26,27,27,29,29,30,30],"right_children":[2,4,6,8,10,12,14,16,18,20,22,24,26,28,30,32,34,36,38,40,42,44,46,48,50,52,54,56,-1,58,60,-1,-1,-1,-1,-1,-1,-1,-1,-1,-1,-1,-1,-1,-1,-1,-1,-1,-1,-1,-1,-1,-1,-1,-1,-1,-1,-1,-1,-1,-1],"split_conditions":[1.08E1,8.25E0,1.26E1,2.5E0,3.3333333E0,2.8666666E0,1.1333333E1,9E0,6E0,1.6666666E0,4E0,6E0,1.375E0,6E0,1.6E1,2.4666667E0,1.0625E0,7.5E0,9.875E0,2.1666667E0,1.375E0,5.6666665E0,9.8E0,1E1,1.1333333E1,7.1E0,7.7083335E0,2.6333334E0,-1.8137118E-2,1.8333334E0,2.1666667E0,4.1260454E-3,-1.3291408E-2,1.6723262E-4,-6.7802547E-3,7.032622E-3,4.867605E-3,2.5452757E-3,-1.6474258E-2,-1.7498292E-3,1.1102842E-2,4.338374E-3,-7.3473476E-4,-7.0949545E-4,1.0163499E-3,3.3696573E-3,7.817498E-4,-2.1169141E-3,-5.0107883E-3,-4.6722167E-3,-1.4627842E-2,-7.592055E-6,1.0436237E-2,2.8407618E-3,-1.2577305E-2,-5.582725E-3,-2.7614974E-3,-7.6333755E-3,-1.2870141E-2,-1.6081972E-2,-4.024367E-4],"split_indices":[18,18,18,29,32,29,31,31,23,31,33,23,24,23,31,29,24,18,34,34,24,34,18,5,18,29,34,29,0,29,29,0,0,0,0,0,0,0,0,0,0,0,0,0,0,0,0,0,0,0,0,0,0,0,0,0,0,0,0,0,0],"split_type":[0,0,0,0,0,0,0,0,0,0,0,0,0,0,0,0,0,0,0,0,0,0,0,0,0,0,0,0,0,0,0,0,0,0,0,0,0,0,0,0,0,0,0,0,0,0,0,0,0,0,0,0,0,0,0,0,0,0,0,0,0],"sum_hessian":[1.1172379E5,6.41631E4,4.7560688E4,2.9232406E4,3.49307E4,2.2735357E4,2.482533E4,1.798893E4,1.1243476E4,3.3605981E3,3.15701E4,1.5078831E4,7.656527E3,2.3266455E4,1.5588755E3,1.689512E4,1.0938109E3,1.0968759E4,2.7471716E2,3.146742E2,3.045924E3,2.3285467E4,8.284634E3,1.4300708E4,7.781229E2,7.232312E3,4.242147E2,2.3065693E4,2.007605E2,1.350358E3,2.0851743E2,1.68091E4,8.601946E1,7.545107E2,3.3930017E2,7.659426E3,3.3093328E3,2.382417E2,3.6475468E1,2.985514E1,2.8481906E2,2.6295405E3,4.1638342E2,6.0359014E3,1.7249564E4,5.010621E3,3.2740125E3,1.0069947E4,4.2307607E3,3.1140234E2,4.667206E2,7.1527773E3,7.953454E1,1.9794987E2,2.2626482E2,1.4899552E4,8.166143E3,3.109426E2,1.0394155E3,4.639826E1,1.6211917E2],"tree_param":{"num_deleted":"0","num_feature":"38","num_nodes":"61","size_leaf_vector":"1"}},{"base_weights":[2.2710974E-3,-2.4853082E-1,2.860124E-1,-3.6220536E-1,-1.0145831E-1,1.5188816E-1,4.8613945E-1,-3.3145738E-1,-6.722911E-1,2.643372E-1,-1.3668437E-1,1.7689697E-1,-6.511171E-1,5.366583E-1,1.1866228E-1,-2.6506135E-1,-3.9650065E-1,-4.3928903E-2,-7.765707E-1,4.1477478E-1,5.484327E-4,-9.254739E-2,-3.198736E-1,2.2436349E-1,-4.153387E-2,-3.5853893E-1,-1.3686575E0,5.718777E-1,2.3545536E-1,1.6737805E-1,-1.2669137E0,-2.971739E-3,9.5864263E-4,-3.7758744E-3,-1.1716967E-2,4.3164764E-4,-1.3723442E-2,-2.565882E-3,-8.221151E-3,4.7298465E-3,-5.5727246E-3,-1.6834997E-3,4.6943785E-3,-1.4763933E-3,1.5081449E-3,-3.4759338E-3,1.1743883E-2,1.2677627E-3,4.0842528E-3,-9.556332E-3,3.0603932E-4,-6.20764E-3,4.5364243E-3,-1.8992594E-2,3.9008213E-5,6.886547E-3,4.381858E-3,1.881306E-3,9.127533E-3,2.4727671E-3,-4.3075476E-3,-1.8124292E-2,7.6116333E-3],"categories":[],"categories_nodes":[],"categories_segments":[],"categories_sizes":[],"default_left":[0,0,0,0,0,0,0,0,0,0,0,0,0,0,0,0,0,0,0,0,0,0,0,0,0,0,0,0,0,0,0,0,0,0,0,0,0,0,0,0,0,0,0,0,0,0,0,0,0,0,0,0,0,0,0,0,0,0,0,0,0,0,0],"id":17,"left_children":[1,3,5,7,9,11,13,15,17,19,21,23,25,27,29,31,33,35,37,39,41,43,45,47,49,51,53,55,57,59,61,-1,-1,-1,-1,-1,-1,-1,-1,-1,-1,-1,-1,-1,-1,-1,-1,-1,-1,-1,-1,-1,-1,-1,-1,-1,-1,-1,-1,-1,-1,-1,-1],"loss_changes":[7.9224224E3,9.862031E2,1.3997559E3,3.1305908E2,3.3207117E2,6.2788025E2,3.8650732E2,1.2826758E2,1.9320459E2,8.841879E1,1.8879263E2,3.1539154E2,1.8937946E2,1.9191602E2,1.7018243E2,1.7527551E2,2.163501E2,5.4968258E1,5.590686E1,8.259976E1,6.757288E1,2.5466008E2,1.8893039E2,4.4623486E2,3.6000696E2,1.4780719E2,2.0071243E2,2.5159961E2,5.793338E1,1.182293E2,1.07151474E2,0E0,0E0,0E0,0E0,0E0,0E0,0E0,0E0,0E0,0E0,0E0,0E0,0E0,0E0,0E0,0E0,0E0,0E0,0E0,0E0,0E0,0E0,0E0,0E0,0E0,0E0,0E0,0E0,0E0,0E0,0E0,0E0],"parents":[2147483647,0,0,1,1,2,2,3,3,4,4,5,5,6,6,7,7,8,8,9,9,10,10,11,11,12,12,13,13,14,14,15,15,16,16,17,17,18,18,19,19,20,20,21,21,22,22,23,23,24,24,25,25,26,26,27,27,28,28,29,29,30,30],"right_children":[2,4,6,8,10,12,14,16,18,20,22,24,26,28,30,32,34,36,38,40,42,44,46,48,50,52,54,56,58,60,62,-1,-1,-1,-1,-1,-1,-1,-1,-1,-1,-1,-1,-1,-1,-1,-1,-1,-1,-1,-1,-1,-1,-1,-1,-1,-1,-1,-1,-1,-1,-1,-1],"split_conditions":[4.375E-1,1.875E-1,6.25E-1,3E1,2E0,3.2E1,2.9E1,1E1,1E0,1.5625E0,2.7E1,7.4375E0,3.4E1,1.1375E1,1.625E0,5.8333335E0,1.2E1,5.5E0,1E0,6E0,1.5625E0,4.8333335E0,8.166667E0,3.6666667E0,5E-1,5.3333335E0,5E0,1E0,7.5E-1,5E0,7.1666665E0,-2.971739E-3,9.5864263E-4,-3.7758744E-3,-1.1716967E-2,4.3164764E-4,-1.3723442E-2,-2.565882E-3,-8.221151E-3,4.7298465E-3,-5.5727246E-3,-1.6834997E-3,4.6943785E-3,-1.4763933E-3,1.5081449E-3,-3.4759338E-3,1.1743883E-2,1.2677627E-3,4.0842528E-3,-9.556332E-3,3.0603932E-4,-6.20764E-3,4.5364243E-3,-1.8992594E-2,3.9008213E-5,6.886547E-3,4.381858E-3,1.881306E-3,9.127533E-3,2.4727671E-3,-4.3075476E-3,-1.8124292E-2,7.6116333E-3],"split_indices":[19,19,19,8,8,8,8,5,5,21,8,21,8,21,24,35,20,35,20,35,24,35,35,35,19,35,35,3,19,35,35,0,0,0,0,0,0,0,0,0,0,0,0,0,0,0,0,0,0,0,0,0,0,0,0,0,0,0,0,0,0,0,0],"split_type":[0,0,0,0,0,0,0,0,0,0,0,0,0,0,0,0,0,0,0,0,0,0,0,0,0,0,0,0,0,0,0,0,0,0,0,0,0,0,0,0,0,0,0,0,0,0,0,0,0,0,0,0,0,0,0,0,0,0,0,0,0,0,0],"sum_hessian":[1.1131247E5,5.908071E4,5.223176E4,3.3306773E4,2.5773938E4,3.1289188E4,2.0942574E4,3.0324014E4,2.9827576E3,2.252524E3,2.3521414E4,3.0353064E4,9.3612274E2,1.8401451E4,2.5411213E3,1.5046362E4,1.5277651E4,4.3005756E2,2.5527E3,1.4246646E3,8.278593E2,1.8976254E4,4.545161E3,2.494573E4,5.407333E3,6.754043E2,2.607184E2,1.6460486E4,1.9409651E3,2.462849E3,7.8272285E1,1.3825791E4,1.2205712E3,1.4927725E4,3.4992654E2,4.0783337E2,2.2224184E1,2.1462486E2,2.3380752E3,1.3504731E3,7.419132E1,6.072211E2,2.2063817E2,1.5485701E4,3.4905522E3,4.4696255E3,7.5535866E1,1.6320782E4,8.624948E3,3.9228766E2,5.0150454E3,5.146011E2,1.6080322E2,1.876691E2,7.3049324E1,8.75857E3,7.701917E3,1.8267019E3,1.1426322E2,2.1806758E3,2.8217328E2,6.343341E1,1.4838871E1],"tree_param":{"num_deleted":"0","num_feature":"38","num_nodes":"63","size_leaf_vector":"1"}},{"base_weights":[3.9367704E-3,-3.8834646E-2,5.3809977E-1,-1.6131705E-1,1.4586563E-1,3.8760673E-2,5.741056E-1,-3.234526E-1,1.8653056E-2,1.2830228E-2,2.873708E-1,1.0203902E0,-2.4675515E-1,4.163125E-1,6.7581064E-1,-3.0187076E-1,-1.1357559E0,7.002339E-2,-5.574399E-1,3.657625E-2,-1.2706722E0,1.824516E-1,4.3540952E-1,1.467521E-2,6.9151916E-2,-9.5543474E-1,1.01112306E-1,-5.8755144E-2,4.889111E-1,6.9038135E-1,-1.5002793E-2,-3.6608407E-3,-1.841954E-3,-3.6695222E-3,-1.23080155E-2,-1.5098321E-3,1.2628848E-3,-1.1451463E-2,-4.1799E-3,-4.6934458E-4,1.3078746E-3,-1.4444452E-3,-1.7117383E-2,2.611481E-3,3.5400342E-4,4.610398E-3,-1.3749371E-3,-1.108084E-2,6.4838585E-3,1.603312E-3,-1.1640375E-2,-1.6428744E-2,3.6410242E-3,-7.990791E-3,7.0054457E-3,5.820337E-3,9.1610913E-4,-1.4636885E-2,7.036891E-3],"categories":[],"categories_nodes":[],"categories_segments":[],"categories_sizes":[],"default_left":[0,0,0,0,0,0,0,0,0,0,0,0,0,0,0,0,0,0,0,0,0,0,0,0,0,0,0,0,0,0,0,0,0,0,0,0,0,0,0,0,0,0,0,0,0,0,0,0,0,0,0,0,0,0,0,0,0,0,0],"id":18,"left_children":[1,3,5,7,9,11,13,15,17,19,21,23,25,27,29,31,33,35,37,39,41,43,45,-1,47,49,51,53,55,57,-1,-1,-1,-1,-1,-1,-1,-1,-1,-1,-1,-1,-1,-1,-1,-1,-1,-1,-1,-1,-1,-1,-1,-1,-1,-1,-1,-1,-1],"loss_changes":[2.5582542E3,2.3440686E3,1.472605E2,1.8191104E3,7.766489E2,1.6424483E2,1.1892261E2,5.6809155E2,8.726738E2,6.4604724E2,3.0829602E2,5.1031967E1,1.1318046E2,1.07104614E2,1.5327075E2,2.3932007E2,5.3604614E1,3.3731805E2,1.8975793E2,1.6496399E2,1.8392456E2,1.3480084E2,1.22997925E2,0E0,3.901046E1,3.930983E1,1.3914763E2,2.328296E2,9.6112305E1,1.3842554E2,0E0,0E0,0E0,0E0,0E0,0E0,0E0,0E0,0E0,0E0,0E0,0E0,0E0,0E0,0E0,0E0,0E0,0E0,0E0,0E0,0E0,0E0,0E0,0E0,0E0,0E0,0E0,0E0,0E0],"parents":[2147483647,0,0,1,1,2,2,3,3,4,4,5,5,6,6,7,7,8,8,9,9,10,10,11,11,12,12,13,13,14,14,15,15,16,16,17,17,18,18,19,19,20,20,21,21,22,22,24,24,25,25,26,26,27,27,28,28,29,29],"right_children":[2,4,6,8,10,12,14,16,18,20,22,24,26,28,30,32,34,36,38,40,42,44,46,-1,48,50,52,54,56,58,-1,-1,-1,-1,-1,-1,-1,-1,-1,-1,-1,-1,-1,-1,-1,-1,-1,-1,-1,-1,-1,-1,-1,-1,-1,-1,-1,-1,-1],"split_conditions":[1E0,5E-1,1.9166666E0,1E0,2E0,1.1666666E0,1.8333334E0,6E0,6E0,6E0,3.3333333E0,4E0,3.1666667E0,4.7916665E0,7E0,1.04E1,3E0,4E0,4E0,2.8333333E0,4E0,2E0,7E0,1.467521E-2,7E0,3E0,8.8E0,7E0,4E0,1E0,-1.5002793E-2,-3.6608407E-3,-1.841954E-3,-3.6695222E-3,-1.23080155E-2,-1.5098321E-3,1.2628848E-3,-1.1451463E-2,-4.1799E-3,-4.6934458E-4,1.3078746E-3,-1.4444452E-3,-1.7117383E-2,2.611481E-3,3.5400342E-4,4.610398E-3,-1.3749371E-3,-1.108084E-2,6.4838585E-3,1.603312E-3,-1.1640375E-2,-1.6428744E-2,3.6410242E-3,-7.990791E-3,7.0054457E-3,5.820337E-3,9.1610913E-4,-1.4636885E-2,7.036891E-3],"split_indices":[2,24,34,23,23,35,35,17,17,17,35,16,35,34,17,26,26,16,16,35,5,35,23,0,16,26,26,16,23,12,0,0,0,0,0,0,0,0,0,0,0,0,0,0,0,0,0,0,0,0,0,0,0,0,0,0,0,0,0],"split_type":[0,0,0,0,0,0,0,0,0,0,0,0,0,0,0,0,0,0,0,0,0,0,0,0,0,0,0,0,0,0,0,0,0,0,0,0,0,0,0,0,0,0,0,0,0,0,0,0,0,0,0,0,0,0,0,0,0,0,0],"sum_hessian":[1.1189478E5,1.03600195E5,8.294584E3,6.230217E4,4.1298023E4,5.644525E2,7.730132E3,3.278088E4,2.9521293E4,2.1300912E4,1.9997111E4,1.2549155E2,4.38961E2,3.0552031E3,4.6749287E3,3.1945426E4,8.354541E2,2.7114816E4,2.406477E3,2.0922957E4,3.7795682E2,1.1723926E4,8.273187E3,8.063563E1,4.485592E1,1.4334172E2,2.9561926E2,3.9969662E2,2.6555063E3,4.6499517E3,2.4977396E1,2.0641475E4,1.1303951E4,9.9138054E1,7.3631604E2,5.489038E3,2.1625777E4,4.4769342E2,1.9587837E3,1.1076337E4,9.846619E3,1.108934E2,2.6706342E2,7.620095E3,4.1038306E3,7.9252344E3,3.479519E2,1.0976631E1,3.3879288E1,2.0567814E1,1.2277391E2,3.2429745E1,2.631895E2,2.0419194E2,1.9550468E2,2.1425186E3,5.129879E2,2.248241E1,4.627469E3],"tree_param":{"num_deleted":"0","num_feature":"38","num_nodes":"59","size_leaf_vector":"1"}},{"base_weights":[1.4104056E-3,2.383459E-1,-1.742229E-1,5.1514494E-1,1.7497922E-1,-3.0566153E-1,1.7866474E-2,6.754362E-1,7.609573E-2,-8.3602756E-1,1.8803075E-1,-2.642584E-1,-8.8928014E-1,4.4737466E-2,-1.0697757E0,8.3957595E-1,5.443314E-1,1.21518396E-1,-1.1923803E0,-3.7285183E-2,-1.2931213E0,1.970375E-1,-6.765318E-1,-2.315084E-1,-7.3534197E-1,-8.3023727E-1,-1.7571438E-2,8.055295E-2,-2.8927845E-1,-5.2024317E-1,-1.6627647E-2,2.5035632E-3,9.005812E-3,6.9958763E-3,3.8429673E-3,8.958401E-3,6.3626986E-4,-1.7262489E-2,-0E0,8.067716E-3,-1.7480917E-2,4.6707084E-3,-1.42258005E-2,7.283749E-4,2.9438247E-3,1.7381087E-3,-1.4398658E-2,-1.3509463E-3,-3.1344907E-3,-8.844499E-3,-0E0,-9.979373E-3,-2.845688E-3,-5.1155203E-4,1.7246184E-3,-2.2168644E-3,-1.793451E-2,-1.5872598E-2,-3.0879106E-3],"categories":[],"categories_nodes":[],"categories_segments":[],"categories_sizes":[],"default_left":[0,0,0,0,0,0,0,0,0,0,0,0,0,0,0,0,0,0,0,0,0,0,0,0,0,0,0,0,0,0,0,0,0,0,0,0,0,0,0,0,0,0,0,0,0,0,0,0,0,0,0,0,0,0,0,0,0,0,0],"id":19,"left_children":[1,3,5,7,9,11,13,15,17,19,21,23,25,27,29,31,33,35,37,39,41,43,45,47,49,51,-1,53,55,57,-1,-1,-1,-1,-1,-1,-1,-1,-1,-1,-1,-1,-1,-1,-1,-1,-1,-1,-1,-1,-1,-1,-1,-1,-1,-1,-1,-1,-1],"loss_changes":[4.6317695E3,8.284768E2,1.614527E3,6.177561E2,5.0822546E2,9.1204395E2,7.560343E2,1.3148535E2,1.3438188E2,1.7458978E2,2.961515E2,5.42927E2,1.1046362E2,3.0274664E2,1.9058722E2,9.711951E1,8.4731445E1,9.96959E1,5.559703E1,2.841197E2,7.79505E1,4.5470703E2,2.5930408E2,2.6039014E2,2.5266077E2,2.1043408E2,0E0,2.776915E2,2.4005615E2,6.679007E1,0E0,0E0,0E0,0E0,0E0,0E0,0E0,0E0,0E0,0E0,0E0,0E0,0E0,0E0,0E0,0E0,0E0,0E0,0E0,0E0,0E0,0E0,0E0,0E0,0E0,0E0,0E0,0E0,0E0],"parents":[2147483647,0,0,1,1,2,2,3,3,4,4,5,5,6,6,7,7,8,8,9,9,10,10,11,11,12,12,13,13,14,14,15,15,16,16,17,17,18,18,19,19,20,20,21,21,22,22,23,23,24,24,25,25,27,27,28,28,29,29],"right_children":[2,4,6,8,10,12,14,16,18,20,22,24,26,28,30,32,34,36,38,40,42,44,46,48,50,52,-1,54,56,58,-1,-1,-1,-1,-1,-1,-1,-1,-1,-1,-1,-1,-1,-1,-1,-1,-1,-1,-1,-1,-1,-1,-1,-1,-1,-1,-1,-1,-1],"split_conditions":[1.1E1,4E0,2E0,1.05E1,2.55E1,1.055E2,1.5E2,6E0,1E0,3.3333333E0,8E0,5E0,6E0,6E0,4E0,3E0,3.5E0,2E0,1E0,1E0,2.5E-1,2E0,5E0,1E1,1E0,1E1,-1.7571438E-2,5E0,1.2E1,4E0,-1.6627647E-2,2.5035632E-3,9.005812E-3,6.9958763E-3,3.8429673E-3,8.958401E-3,6.3626986E-4,-1.7262489E-2,-0E0,8.067716E-3,-1.7480917E-2,4.6707084E-3,-1.42258005E-2,7.283749E-4,2.9438247E-3,1.7381087E-3,-1.4398658E-2,-1.3509463E-3,-3.1344907E-3,-8.844499E-3,-0E0,-9.979373E-3,-2.845688E-3,-5.1155203E-4,1.7246184E-3,-2.2168644E-3,-1.793451E-2,-1.5872598E-2,-3.0879106E-3],"split_indices":[0,0,23,21,22,22,22,27,10,27,17,17,17,17,17,16,21,0,5,24,21,23,16,5,10,16,0,5,16,16,0,0,0,0,0,0,0,0,0,0,0,0,0,0,0,0,0,0,0,0,0,0,0,0,0,0,0,0,0],"split_type":[0,0,0,0,0,0,0,0,0,0,0,0,0,0,0,0,0,0,0,0,0,0,0,0,0,0,0,0,0,0,0,0,0,0,0,0,0,0,0,0,0,0,0,0,0,0,0,0,0,0,0,0,0,0,0,0,0,0,0],"sum_hessian":[1.1128516E5,4.7381043E4,6.390411E4,8.808112E3,3.8572934E4,3.794882E4,2.595529E4,6.4446504E3,2.3634614E3,4.8305322E2,3.808988E4,3.544929E4,2.4995347E3,2.5338746E4,6.165419E2,2.8348206E3,3.6098298E3,2.2901482E3,7.331312E1,1.8096411E2,3.020891E2,3.7705945E4,3.839349E2,3.3160742E4,2.2885466E3,2.356378E3,1.4315677E2,2.2897781E4,2.4409644E3,3.294425E2,2.8709933E2,2.739337E2,2.560887E3,1.810775E3,1.7990548E3,1.4865694E2,2.1414915E3,4.997568E1,2.3337437E1,1.2248125E2,5.848287E1,1.7857685E1,2.8423145E2,1.6586588E4,2.1119357E4,1.8231487E2,2.0162006E2,1.5260244E4,1.7900496E4,1.9027775E3,3.857691E2,1.7937927E3,5.625851E2,9.399082E3,1.34987E4,2.3455884E3,9.537602E1,4.4608566E1,2.8483395E2],"tree_param":{"num_deleted":"0","num_feature":"38","num_nodes":"59","size_leaf_vector":"1"}},{"base_weights":[4.804204E-3,-1.7416923E-1,1.7467646E-1,-4.631199E-2,-3.7843528E-1,1.177646E-1,4.937316E-1,-1.6826403E-1,3.8417527E-1,-6.4611495E-1,-8.929308E-2,4.396397E-2,2.4371494E-1,6.382102E-1,6.874124E-2,-1.8900955E-1,5.9972428E-2,3.301181E-1,7.0957243E-1,-3.9816394E-1,-7.018136E-1,-1.3391823E-1,3.1290832E-1,-5.3235676E-2,1.4202182E-1,2.0375629E-1,5.3880286E-1,5.8632666E-1,9.3638974E-1,3.5853618E-1,-1.980276E-1,-1.5765968E-3,-4.6449876E-3,-7.04143E-3,1.9910324E-3,6.830045E-3,2.6212442E-3,4.901853E-3,1.0476182E-2,2.2112122E-3,-4.804592E-3,-6.764308E-3,-1.48374485E-2,7.618816E-4,-4.064681E-3,6.948472E-3,-2.2387807E-3,2.0986568E-4,-3.5446158E-3,3.3357027E-3,6.720836E-4,2.1686233E-3,-6.5806047E-3,5.910539E-3,-1.0620688E-2,7.519175E-3,3.6943578E-3,9.750901E-3,-1.1383845E-2,-6.0884384E-3,5.182908E-3,-8.804054E-3,-2.3522088E-4],"categories":[],"categories_nodes":[],"categories_segments":[],"categories_sizes":[],"default_left":[0,0,0,0,0,0,0,0,0,0,0,0,0,0,0,0,0,0,0,0,0,0,0,0,0,0,0,0,0,0,0,0,0,0,0,0,0,0,0,0,0,0,0,0,0,0,0,0,0,0,0,0,0,0,0,0,0,0,0,0,0,0,0],"id":20,"left_children":[1,3,5,7,9,11,13,15,17,19,21,23,25,27,29,31,33,35,37,39,41,43,45,47,49,51,53,55,57,59,61,-1,-1,-1,-1,-1,-1,-1,-1,-1,-1,-1,-1,-1,-1,-1,-1,-1,-1,-1,-1,-1,-1,-1,-1,-1,-1,-1,-1,-1,-1,-1,-1],"loss_changes":[3.3993745E3,1.420377E3,1.0395382E3,1.7584406E3,1.6186567E3,4.517885E2,5.3021216E2,1.2411316E2,1.2525952E2,1.4487598E2,1.8073706E2,2.9325146E2,2.0899121E2,9.164795E1,1.7213397E2,2.0448248E2,2.3006966E2,1.4850317E2,6.88479E1,1.0447467E2,1.6229883E2,5.216279E2,2.0801987E2,3.4590384E2,2.1813608E2,1.7875012E2,1.8122766E2,1.9353235E2,8.262036E1,1.671521E2,1.3430809E2,0E0,0E0,0E0,0E0,0E0,0E0,0E0,0E0,0E0,0E0,0E0,0E0,0E0,0E0,0E0,0E0,0E0,0E0,0E0,0E0,0E0,0E0,0E0,0E0,0E0,0E0,0E0,0E0,0E0,0E0,0E0,0E0],"parents":[2147483647,0,0,1,1,2,2,3,3,4,4,5,5,6,6,7,7,8,8,9,9,10,10,11,11,12,12,13,13,14,14,15,15,16,16,17,17,18,18,19,19,20,20,21,21,22,22,23,23,24,24,25,25,26,26,27,27,28,28,29,29,30,30],"right_children":[2,4,6,8,10,12,14,16,18,20,22,24,26,28,30,32,34,36,38,40,42,44,46,48,50,52,54,56,58,60,62,-1,-1,-1,-1,-1,-1,-1,-1,-1,-1,-1,-1,-1,-1,-1,-1,-1,-1,-1,-1,-1,-1,-1,-1,-1,-1,-1,-1,-1,-1,-1,-1],"split_conditions":[1.25E-1,9E0,6.25E-1,7E0,1.5E1,2.6333334E0,1.125E1,2.1428572E-1,7.1428575E-2,3E0,2.1428572E-1,3.75E-1,2.1428572E-1,1E1,5E0,8.5E0,7E0,7E0,8.1E0,5.3333335E0,1.31E2,1.8E1,1.9E1,9.541667E0,7E0,1E1,1.06E2,3.5E0,8E0,5.6E1,6.9E0,-1.5765968E-3,-4.6449876E-3,-7.04143E-3,1.9910324E-3,6.830045E-3,2.6212442E-3,4.901853E-3,1.0476182E-2,2.2112122E-3,-4.804592E-3,-6.764308E-3,-1.48374485E-2,7.618816E-4,-4.064681E-3,6.948472E-3,-2.2387807E-3,2.0986568E-4,-3.5446158E-3,3.3357027E-3,6.720836E-4,2.1686233E-3,-6.5806047E-3,5.910539E-3,-1.0620688E-2,7.519175E-3,3.6943578E-3,9.750901E-3,-1.1383845E-2,-6.0884384E-3,5.182908E-3,-8.804054E-3,-2.3522088E-4],"split_indices":[21,13,1,13,13,29,21,36,36,16,36,1,36,21,16,28,28,28,28,32,25,13,13,34,28,32,25,21,13,25,28,0,0,0,0,0,0,0,0,0,0,0,0,0,0,0,0,0,0,0,0,0,0,0,0,0,0,0,0,0,0,0,0],"split_type":[0,0,0,0,0,0,0,0,0,0,0,0,0,0,0,0,0,0,0,0,0,0,0,0,0,0,0,0,0,0,0,0,0,0,0,0,0,0,0,0,0,0,0,0,0,0,0,0,0,0,0,0,0,0,0,0,0,0,0,0,0,0,0],"sum_hessian":[1.11797836E5,5.4431863E4,5.7365977E4,3.3491586E4,2.0940277E4,4.8698336E4,8.667641E3,2.6107008E4,7.384579E3,1.0863832E4,1.0076446E4,3.0727064E4,1.797127E4,6.4607056E3,2.206935E3,2.3944889E4,2.162119E3,6.3525684E3,1.0320106E3,2.0131025E3,8.8507295E3,9.081015E3,9.9543085E2,1.5417302E4,1.5309764E4,1.5847338E4,2.123931E3,5.5294097E3,9.312961E2,1.062051E3,1.144884E3,2.151809E4,2.426799E3,3.2534015E2,1.8367788E3,1.0089083E3,5.34366E3,6.416278E2,3.903828E2,2.3047537E2,1.7826272E3,8.588814E3,2.6191507E2,5.1245664E3,3.9564487E3,5.836644E2,4.117664E2,1.2366693E4,3.050608E3,4.2820127E3,1.1027751E4,1.5618539E4,2.2879846E2,2.0628894E3,6.1041397E1,3.1178833E3,2.4115264E3,9.1930457E2,1.1991485E1,1.4507933E2,9.169717E2,2.238896E2,9.209944E2],"tree_param":{"num_deleted":"0","num_feature":"38","num_nodes":"63","size_leaf_vector":"1"}},{"base_weights":[8.502779E-3,3.0715382E-1,-1.10511735E-1,1.8763517E-1,5.0182664E-1,-2.6737636E-1,2.4315317E-1,-1.26050925E-2,2.905787E-1,5.241808E-1,-3.596492E-1,-2.3992547E-1,-1.1430935E0,1.5090781E-1,4.0970626E-1,-1.4460136E-1,2.563465E-1,6.5141374E-1,2.308441E-1,3.997382E-1,6.4573133E-1,-1.8358804E-2,1.8455042E-1,-2.1064217E-1,-9.867882E-1,-1.6074656E0,-7.769225E-1,-2.237675E-1,2.3840748E-1,4.3511125E-1,-9.4439864E-1,-1.4951568E-4,-4.8129205E-3,4.0209843E-3,7.073786E-4,6.7243394E-3,-1.23662185E-2,-7.98116E-5,2.845268E-3,4.099336E-3,-1.5212694E-2,3.622613E-3,7.1192537E-3,-2.3877653E-3,9.233819E-3,-3.1483083E-3,-1.0256207E-3,-3.5998556E-3,-1.1055309E-2,-1.7913025E-2,-8.171162E-3,-1.2273793E-2,-4.3201665E-3,-1.7649501E-3,-9.925014E-3,7.7609485E-4,3.7427007E-3,2.874359E-4,4.878943E-3,6.846462E-3,-1.8211523E-2],"categories":[],"categories_nodes":[],"categories_segments":[],"categories_sizes":[],"default_left":[0,0,0,0,0,0,0,0,0,0,0,0,0,0,0,0,0,0,0,0,0,0,0,0,0,0,0,0,0,0,0,0,0,0,0,0,0,0,0,0,0,0,0,0,0,0,0,0,0,0,0,0,0,0,0,0,0,0,0,0,0],"id":21,"left_children":[1,3,5,7,9,11,13,15,17,19,21,23,25,27,29,31,33,35,37,39,41,-1,43,45,47,49,51,53,55,57,59,-1,-1,-1,-1,-1,-1,-1,-1,-1,-1,-1,-1,-1,-1,-1,-1,-1,-1,-1,-1,-1,-1,-1,-1,-1,-1,-1,-1,-1,-1],"loss_changes":[3.9810107E3,7.399055E2,4.442547E3,4.0894366E2,2.3536621E2,1.3275342E3,3.7582788E2,2.384428E2,2.783451E2,1.7395752E2,2.5435962E2,1.1716406E3,2.6993457E2,5.20177E2,3.024452E2,1.9571515E2,5.8085663E1,7.745233E1,1.4501172E2,1.1609021E2,1.0679883E2,0E0,7.539312E1,5.816592E2,1.4347119E2,8.8131714E1,1.3999725E2,1.0423726E2,2.7943958E2,1.8278027E2,2.4240282E2,0E0,0E0,0E0,0E0,0E0,0E0,0E0,0E0,0E0,0E0,0E0,0E0,0E0,0E0,0E0,0E0,0E0,0E0,0E0,0E0,0E0,0E0,0E0,0E0,0E0,0E0,0E0,0E0,0E0,0E0],"parents":[2147483647,0,0,1,1,2,2,3,3,4,4,5,5,6,6,7,7,8,8,9,9,10,10,11,11,12,12,13,13,14,14,15,15,16,16,17,17,18,18,19,19,20,20,22,22,23,23,24,24,25,25,26,26,27,27,28,28,29,29,30,30],"right_children":[2,4,6,8,10,12,14,16,18,20,22,24,26,28,30,32,34,36,38,40,42,-1,44,46,48,50,52,54,56,58,60,-1,-1,-1,-1,-1,-1,-1,-1,-1,-1,-1,-1,-1,-1,-1,-1,-1,-1,-1,-1,-1,-1,-1,-1,-1,-1,-1,-1,-1,-1],"split_conditions":[1E0,6.25E-1,4.375E-1,1.3333334E0,7E0,6E0,6.25E-1,8E0,4.6666665E0,2E0,3.9E1,1.385E2,5.65E1,3.55E1,1.055E2,5.6666665E0,5.3333335E0,9.3E0,6.5E0,1.0666667E1,6.5E0,-1.8358804E-2,6E0,2.3333333E0,6.6E0,9E0,9.666667E0,6.6666665E0,2.3333333E0,5.9166665E0,3.3333333E0,-1.4951568E-4,-4.8129205E-3,4.0209843E-3,7.073786E-4,6.7243394E-3,-1.23662185E-2,-7.98116E-5,2.845268E-3,4.099336E-3,-1.5212694E-2,3.622613E-3,7.1192537E-3,-2.3877653E-3,9.233819E-3,-3.1483083E-3,-1.0256207E-3,-3.5998556E-3,-1.1055309E-2,-1.7913025E-2,-8.171162E-3,-1.2273793E-2,-4.3201665E-3,-1.7649501E-3,-9.925014E-3,7.7609485E-4,3.7427007E-3,2.874359E-4,4.878943E-3,6.846462E-3,-1.8211523E-2],"split_indices":[3,19,19,33,17,17,19,28,30,33,22,22,22,22,22,31,31,28,28,32,28,0,33,33,28,31,30,32,33,30,31,0,0,0,0,0,0,0,0,0,0,0,0,0,0,0,0,0,0,0,0,0,0,0,0,0,0,0,0,0,0],"split_type":[0,0,0,0,0,0,0,0,0,0,0,0,0,0,0,0,0,0,0,0,0,0,0,0,0,0,0,0,0,0,0,0,0,0,0,0,0,0,0,0,0,0,0,0,0,0,0,0,0,0,0,0,0,0,0,0,0,0,0,0,0],"sum_hessian":[1.1197265E5,3.1910826E4,8.006182E4,1.9789994E4,1.2120833E4,5.546919E4,2.4592629E4,6.7117183E3,1.3078275E4,1.1820334E4,3.004992E2,5.379523E4,1.6739615E3,1.5847084E4,8.745546E3,4.511803E3,2.1999153E3,1.8405608E3,1.1237715E4,5.8677114E3,5.952623E3,7.7948616E1,2.2255058E2,5.1778086E4,2.0171456E3,7.2394434E2,9.500173E2,2.991639E3,1.2855444E4,8.591326E3,1.5421965E2,3.2691643E3,1.2426388E3,1.2186356E3,9.812796E2,1.8263235E3,1.4237303E1,2.0532463E3,9.184468E3,5.843764E3,2.3946815E1,1.1440333E3,4.80859E3,1.4191504E2,8.063554E1,2.6342703E4,2.543538E4,3.297888E2,1.6873568E3,5.770583E2,1.4688602E2,4.0043274E2,5.4958453E2,2.8301135E3,1.6152522E2,5.902599E3,6.9528457E3,9.954184E2,7.5959077E3,5.329934E1,1.0092032E2],"tree_param":{"num_deleted":"0","num_feature":"38","num_nodes":"61","size_leaf_vector":"1"}},{"base_weights":[7.1711247E-3,-2.0196164E-1,2.0067614E-1,-1.5224178E-1,-8.855434E-1,5.2638483E-1,1.409204E-1,-3.614048E-2,-3.3278322E-1,-1.1953577E0,-7.815996E-1,-9.192669E-1,5.4251254E-1,-2.6139852E-1,1.7395109E-1,-1.5369284E-1,1.7927322E-1,-4.514366E-1,-1.211206E-1,-1.2761853E0,2.926126E-1,-6.9737625E-1,-1.2900383E0,-1.6528327E-2,-3.464806E-1,6.855121E-1,1.20676234E-1,-5.7983214E-1,-8.125598E-2,5.5576257E-2,2.77615E-1,-2.3649265E-3,1.9176624E-3,-5.651212E-4,4.203111E-3,-6.3950177E-3,-2.1930623E-3,-4.898501E-3,1.8675749E-3,-1.5628276E-2,-7.7519245E-3,9.540311E-3,-1.0311378E-2,1.8506306E-3,-7.758748E-3,-1.6066452E-2,-5.6879106E-3,2.9953646E-3,-1.4364029E-2,6.965235E-3,-1.5482798E-2,-1.7231654E-2,1.6574643E-3,-1.5063841E-3,-8.442103E-3,-2.6110974E-3,5.127153E-3,1.2443082E-4,3.8110784E-3,3.9050253E-3,1.44989E-3],"categories":[],"categories_nodes":[],"categories_segments":[],"categories_sizes":[],"default_left":[0,0,0,0,0,0,0,0,0,0,0,0,0,0,0,0,0,0,0,0,0,0,0,0,0,0,0,0,0,0,0,0,0,0,0,0,0,0,0,0,0,0,0,0,0,0,0,0,0,0,0,0,0,0,0,0,0,0,0,0,0],"id":22,"left_children":[1,3,5,7,9,11,13,15,17,19,21,23,25,27,29,31,33,35,37,39,41,43,45,-1,47,49,51,53,55,57,59,-1,-1,-1,-1,-1,-1,-1,-1,-1,-1,-1,-1,-1,-1,-1,-1,-1,-1,-1,-1,-1,-1,-1,-1,-1,-1,-1,-1,-1,-1],"loss_changes":[4.532313E3,1.8250745E3,1.1298201E3,1.0506619E3,1.0485962E2,2.1240015E2,6.535694E2,7.739437E2,4.9087622E2,1.1318457E2,1.0574219E2,3.1985191E1,5.3482666E2,2.1148528E2,5.567095E2,5.663253E2,6.1408813E2,5.450398E2,8.041255E2,1.0684924E2,5.0332066E1,1.6793909E2,7.3462585E1,0E0,5.378941E1,1.6860791E2,1.8605466E2,1.481164E2,2.5599191E2,2.970932E2,3.606045E2,0E0,0E0,0E0,0E0,0E0,0E0,0E0,0E0,0E0,0E0,0E0,0E0,0E0,0E0,0E0,0E0,0E0,0E0,0E0,0E0,0E0,0E0,0E0,0E0,0E0,0E0,0E0,0E0,0E0,0E0],"parents":[2147483647,0,0,1,1,2,2,3,3,4,4,5,5,6,6,7,7,8,8,9,9,10,10,11,11,12,12,13,13,14,14,15,15,16,16,17,17,18,18,19,19,20,20,21,21,22,22,24,24,25,25,26,26,27,27,28,28,29,29,30,30],"right_children":[2,4,6,8,10,12,14,16,18,20,22,24,26,28,30,32,34,36,38,40,42,44,46,-1,48,50,52,54,56,58,60,-1,-1,-1,-1,-1,-1,-1,-1,-1,-1,-1,-1,-1,-1,-1,-1,-1,-1,-1,-1,-1,-1,-1,-1,-1,-1,-1,-1,-1,-1],"split_conditions":[1.25E-1,1.01E2,4E0,8E0,8.75E0,1.0666667E0,2.8E1,1E0,2.6E0,7.1666665E0,2.25E2,3E0,1.125E1,1E0,2E0,7E0,6E0,1.5E1,1.5E1,1E0,7.05E1,9.083333E0,1.1E1,-1.6528327E-2,7E0,1.235E2,2E0,8E0,1.5E1,6E0,8E0,-2.3649265E-3,1.9176624E-3,-5.651212E-4,4.203111E-3,-6.3950177E-3,-2.1930623E-3,-4.898501E-3,1.8675749E-3,-1.5628276E-2,-7.7519245E-3,9.540311E-3,-1.0311378E-2,1.8506306E-3,-7.758748E-3,-1.6066452E-2,-5.6879106E-3,2.9953646E-3,-1.4364029E-2,6.965235E-3,-1.5482798E-2,-1.7231654E-2,1.6574643E-3,-1.5063841E-3,-8.442103E-3,-2.6110974E-3,5.127153E-3,1.2443082E-4,3.8110784E-3,3.9050253E-3,1.44989E-3],"split_indices":[21,22,0,13,30,29,9,23,29,35,22,23,21,23,23,13,13,13,13,23,9,30,13,0,13,9,30,0,13,35,13,0,0,0,0,0,0,0,0,0,0,0,0,0,0,0,0,0,0,0,0,0,0,0,0,0,0,0,0,0,0],"split_type":[0,0,0,0,0,0,0,0,0,0,0,0,0,0,0,0,0,0,0,0,0,0,0,0,0,0,0,0,0,0,0,0,0,0,0,0,0,0,0,0,0,0,0,0,0,0,0,0,0,0,0,0,0,0,0,0,0,0,0,0,0],"sum_hessian":[1.1198289E5,5.381063E4,5.817226E4,5.017419E4,3.636438E3,9.001764E3,4.91705E4,3.0552027E4,1.9622162E4,8.878267E2,2.7486113E3,9.29386E1,8.908825E3,3.7200833E3,4.5450414E4,1.977606E4,1.0775967E4,1.2559487E4,7.0626743E3,8.449414E2,4.2885303E1,2.3773098E3,3.7130154E2,3.2666252E1,6.0272346E1,6.644798E3,2.2640278E3,1.3324894E3,2.387594E3,2.123811E4,2.4212307E4,1.5961333E4,3.8147283E3,5.4437534E3,5.3322134E3,6.924364E3,5.6351235E3,3.216294E3,3.8463804E3,5.241979E2,3.2074353E2,3.1411673E1,1.1473632E1,1.9030293E2,2.1870068E3,2.491703E2,1.2213124E2,3.930142E1,2.0970928E1,6.6183335E3,2.6464262E1,4.621365E1,2.217814E3,5.164371E2,8.160523E2,1.8395532E3,5.4804083E2,1.876784E4,2.4702693E3,1.3059876E4,1.1152431E4],"tree_param":{"num_deleted":"0","num_feature":"38","num_nodes":"61","size_leaf_vector":"1"}},{"base_weights":[1.1021401E-2,2.6477787E-1,-3.2355544E-1,1.5014967E-1,4.9818552E-1,-2.874891E-1,-1.0218053E0,8.0400504E-2,2.9777417E-1,5.239418E-1,-8.39842E-1,-1.6604468E-1,-4.0962002E-1,-4.736987E-1,-1.423057E0,1.2414994E-1,-1.0161955E-1,3.1903717E-1,-6.4857227E-1,5.7529676E-1,1.8870954E-1,-1.2887633E0,-1.9339985E-1,-2.0734312E-1,1.7464179E-1,-3.6262167E-1,-7.697385E-1,-3.2793698E-1,-1.7813658E-2,-1.6538486E0,-7.4008703E-1,-1.9355643E-3,1.5548761E-3,-7.431654E-4,-1.4262546E-2,5.349149E-3,1.9304343E-3,-2.3692232E-3,-1.8100293E-2,5.935889E-3,-7.3509137E-3,2.4552858E-3,-1.3424258E-2,-1.7923499E-2,-9.37661E-3,-1.1819999E-2,5.7142936E-3,-1.1858147E-3,-3.5486927E-3,3.942944E-3,-1.1607603E-3,-4.407806E-3,-1.73868E-3,-1.3223668E-2,-6.487008E-3,-1.7888535E-2,-6.081753E-4,-1.7707657E-2,-1.3406154E-2,5.859347E-3,-1.4175611E-2],"categories":[],"categories_nodes":[],"categories_segments":[],"categories_sizes":[],"default_left":[0,0,0,0,0,0,0,0,0,0,0,0,0,0,0,0,0,0,0,0,0,0,0,0,0,0,0,0,0,0,0,0,0,0,0,0,0,0,0,0,0,0,0,0,0,0,0,0,0,0,0,0,0,0,0,0,0,0,0,0,0],"id":23,"left_children":[1,3,5,7,9,11,13,15,17,19,21,23,25,27,29,31,33,35,37,39,41,43,45,47,49,51,53,55,-1,57,59,-1,-1,-1,-1,-1,-1,-1,-1,-1,-1,-1,-1,-1,-1,-1,-1,-1,-1,-1,-1,-1,-1,-1,-1,-1,-1,-1,-1,-1,-1],"loss_changes":[9.523711E3,1.7044541E3,1.2123408E3,4.394406E2,7.258716E2,6.803108E2,5.1066772E2,2.318314E2,2.765022E2,3.5177734E2,1.09049774E2,3.2532074E2,3.8267163E2,1.830594E2,1.9881519E2,2.3378601E2,1.98308E2,3.62234E2,1.3460922E2,4.307661E2,2.3879324E2,2.0779724E1,1.379142E2,2.6817706E2,1.603552E2,2.9710132E2,1.642019E2,3.5423E2,0E0,1.0981445E1,3.3150446E2,0E0,0E0,0E0,0E0,0E0,0E0,0E0,0E0,0E0,0E0,0E0,0E0,0E0,0E0,0E0,0E0,0E0,0E0,0E0,0E0,0E0,0E0,0E0,0E0,0E0,0E0,0E0,0E0,0E0,0E0],"parents":[2147483647,0,0,1,1,2,2,3,3,4,4,5,5,6,6,7,7,8,8,9,9,10,10,11,11,12,12,13,13,14,14,15,15,16,16,17,17,18,18,19,19,20,20,21,21,22,22,23,23,24,24,25,25,26,26,27,27,29,29,30,30],"right_children":[2,4,6,8,10,12,14,16,18,20,22,24,26,28,30,32,34,36,38,40,42,44,46,48,50,52,54,56,-1,58,60,-1,-1,-1,-1,-1,-1,-1,-1,-1,-1,-1,-1,-1,-1,-1,-1,-1,-1,-1,-1,-1,-1,-1,-1,-1,-1,-1,-1,-1,-1],"split_conditions":[1.08E1,6.25E-1,6E0,3.8333333E0,1.0428572E1,1.28E1,1.1666667E1,6.125E0,1.00625E1,1.00625E1,2.8333333E0,5.6666665E0,1E0,3.9375E0,1.24E1,2E0,3.0625E0,8.333333E0,6.3333335E0,8E0,1.1666667E1,6E0,1.1E1,1.875E-1,1.175E1,1.16E1,4E0,4E0,-1.7813658E-2,9E0,4E0,-1.9355643E-3,1.5548761E-3,-7.431654E-4,-1.4262546E-2,5.349149E-3,1.9304343E-3,-2.3692232E-3,-1.8100293E-2,5.935889E-3,-7.3509137E-3,2.4552858E-3,-1.3424258E-2,-1.7923499E-2,-9.37661E-3,-1.1819999E-2,5.7142936E-3,-1.1858147E-3,-3.5486927E-3,3.942944E-3,-1.1607603E-3,-4.407806E-3,-1.73868E-3,-1.3223668E-2,-6.487008E-3,-1.7888535E-2,-6.081753E-4,-1.7707657E-2,-1.3406154E-2,5.859347E-3,-1.4175611E-2],"split_indices":[18,19,17,35,18,18,18,21,21,21,35,35,10,21,26,17,24,18,27,17,27,16,27,24,18,26,16,16,0,16,16,0,0,0,0,0,0,0,0,0,0,0,0,0,0,0,0,0,0,0,0,0,0,0,0,0,0,0,0,0,0],"split_type":[0,0,0,0,0,0,0,0,0,0,0,0,0,0,0,0,0,0,0,0,0,0,0,0,0,0,0,0,0,0,0,0,0,0,0,0,0,0,0,0,0,0,0,0,0,0,0,0,0,0,0,0,0,0,0,0,0,0,0,0,0],"sum_hessian":[1.1216228E5,6.3791035E4,4.8371242E4,4.279732E4,2.0993715E4,4.6008945E4,2.3622986E3,2.9085994E4,1.3711326E4,2.0603607E4,3.9010654E2,2.3089906E4,2.2919037E4,1.0080503E3,1.3542483E3,2.3464814E4,5.621179E3,1.3417661E4,2.936647E2,1.7854479E4,2.749129E3,2.2338254E2,1.66724E2,2.0603832E4,2.4860757E3,2.0293016E4,2.6260215E3,9.1689624E2,9.1154045E1,1.00148083E3,3.5276743E2,2.0948564E3,2.1369959E4,5.5171196E3,1.0405983E2,4.9278135E3,8.489848E3,2.2494821E2,6.8716484E1,1.7614709E4,2.3977135E2,2.658318E3,9.0810936E1,7.6450485E1,1.4693204E2,7.2768936E1,9.3955055E1,1.2884571E4,7.7192603E3,1.4205789E3,1.0654967E3,1.4332846E4,5.96017E3,4.5488138E2,2.1711401E3,1.3383327E2,7.83063E2,6.9857965E2,3.0290118E2,1.1810934E2,2.346581E2],"tree_param":{"num_deleted":"0","num_feature":"38","num_nodes":"61","size_leaf_vector":"1"}},{"base_weights":[5.8612325E-3,-1.5892015E-1,1.696633E-1,-2.5864315E-1,-5.715618E-3,-7.821415E-1,1.8265887E-1,-1.5458614E-1,-4.7639224E-1,1.5169199E-1,-1.8259804E-1,-3.528458E-1,-1.2317396E0,2.7452138E-1,6.9759764E-2,-1.11387536E-1,-1.4010633E0,-5.185507E-1,3.2859594E-1,-2.4642859E-2,3.7272468E-1,-6.3522345E-1,-9.798485E-2,-1.4098477E0,2.9886968E-2,-9.48613E-1,-1.8265026E-2,5.042991E-1,2.1230654E-1,-1.020849E-1,2.4998882E-1,-9.4341364E-4,-9.212253E-3,3.7543525E-3,-1.4554405E-2,-4.9208463E-3,-1.7479777E-2,4.6100263E-3,-7.7203666E-3,4.1451713E-4,-8.197183E-3,1.6293946E-3,4.9641924E-3,-8.027168E-3,-6.927672E-4,-6.9349195E-4,-1.7249515E-2,-1.7502174E-2,-7.291762E-3,-1.6357822E-3,1.0185199E-2,-1.4895241E-2,-2.3247192E-3,3.6827533E-3,7.4137715E-3,1.5407173E-3,4.8840065E-3,7.407693E-4,-2.7825015E-3,3.540498E-3,8.496422E-4],"categories":[],"categories_nodes":[],"categories_segments":[],"categories_sizes":[],"default_left":[0,0,0,0,0,0,0,0,0,0,0,0,0,0,0,0,0,0,0,0,0,0,0,0,0,0,0,0,0,0,0,0,0,0,0,0,0,0,0,0,0,0,0,0,0,0,0,0,0,0,0,0,0,0,0,0,0,0,0,0,0],"id":24,"left_children":[1,3,5,7,9,11,13,15,17,19,21,23,25,27,29,31,33,35,37,39,41,43,45,47,49,51,-1,53,55,57,59,-1,-1,-1,-1,-1,-1,-1,-1,-1,-1,-1,-1,-1,-1,-1,-1,-1,-1,-1,-1,-1,-1,-1,-1,-1,-1,-1,-1,-1,-1],"loss_changes":[3.0167837E3,8.503004E2,6.926074E2,7.6189185E2,6.1235657E2,1.3760114E2,5.724906E2,1.2244319E3,3.7149072E2,4.5427133E2,3.9426312E2,1.6568019E2,4.045923E1,4.3283813E2,7.699208E2,3.012725E2,8.069885E1,3.2430786E2,8.067743E1,3.4237918E2,1.3154749E2,1.5106445E2,4.0120572E2,8.692795E0,6.0612534E1,9.430794E1,0E0,2.0370032E2,3.835603E2,3.9524677E2,2.0684985E2,0E0,0E0,0E0,0E0,0E0,0E0,0E0,0E0,0E0,0E0,0E0,0E0,0E0,0E0,0E0,0E0,0E0,0E0,0E0,0E0,0E0,0E0,0E0,0E0,0E0,0E0,0E0,0E0,0E0,0E0],"parents":[2147483647,0,0,1,1,2,2,3,3,4,4,5,5,6,6,7,7,8,8,9,9,10,10,11,11,12,12,13,13,14,14,15,15,16,16,17,17,18,18,19,19,20,20,21,21,22,22,23,23,24,24,25,25,27,27,28,28,29,29,30,30],"right_children":[2,4,6,8,10,12,14,16,18,20,22,24,26,28,30,32,34,36,38,40,42,44,46,48,50,52,-1,54,56,58,60,-1,-1,-1,-1,-1,-1,-1,-1,-1,-1,-1,-1,-1,-1,-1,-1,-1,-1,-1,-1,-1,-1,-1,-1,-1,-1,-1,-1,-1,-1],"split_conditions":[1.875E-1,2E0,2.55E1,8E0,8E0,2E0,8E0,1.09E2,9E0,3E0,3.15E1,1.8333334E0,2.4666667E0,1E0,2.5E0,2E0,1E0,3E0,5.6666665E0,6E0,3E0,7.1428575E-2,2E0,9.5625E0,6.3333335E0,1E0,-1.8265026E-2,8E0,6.5625E0,3.5E0,4.5E0,-9.4341364E-4,-9.212253E-3,3.7543525E-3,-1.4554405E-2,-4.9208463E-3,-1.7479777E-2,4.6100263E-3,-7.7203666E-3,4.1451713E-4,-8.197183E-3,1.6293946E-3,4.9641924E-3,-8.027168E-3,-6.927672E-4,-6.9349195E-4,-1.7249515E-2,-1.7502174E-2,-7.291762E-3,-1.6357822E-3,1.0185199E-2,-1.4895241E-2,-2.3247192E-3,3.6827533E-3,7.4137715E-3,1.5407173E-3,4.8840065E-3,7.407693E-4,-2.7825015E-3,3.540498E-3,8.496422E-4],"split_indices":[21,23,9,13,13,6,13,9,28,35,9,35,29,6,35,14,6,14,32,23,6,36,14,21,32,23,0,21,21,21,21,0,0,0,0,0,0,0,0,0,0,0,0,0,0,0,0,0,0,0,0,0,0,0,0,0,0,0,0,0,0],"split_type":[0,0,0,0,0,0,0,0,0,0,0,0,0,0,0,0,0,0,0,0,0,0,0,0,0,0,0,0,0,0,0,0,0,0,0,0,0,0,0,0,0,0,0,0,0,0,0,0,0,0,0,0,0,0,0,0,0,0,0,0,0],"sum_hessian":[1.1175261E5,5.5700742E4,5.6051863E4,3.3724555E4,2.1976188E4,7.463118E2,5.530555E4,2.2837035E4,1.0887518E4,1.1619783E4,1.0356404E4,3.915803E2,3.547315E2,3.047356E4,2.483199E4,2.208179E4,7.5524646E2,1.0351606E4,5.359118E2,6.459326E3,5.1604565E3,1.618339E3,8.738065E3,1.0118587E2,2.903944E2,2.5605133E2,9.868018E1,6.4721284E3,2.4001434E4,1.2704706E4,1.2127284E4,2.1637857E4,4.4393253E2,1.9564852E1,7.356816E2,1.0145445E4,2.0616046E2,4.8442853E2,5.148329E1,5.966217E3,4.9310944E2,1.9291333E3,3.2313235E3,1.242414E3,3.7592502E2,8.595914E3,1.4215126E2,5.7184284E1,4.4001583E1,2.4521558E2,4.517885E1,1.3917894E2,1.168724E2,4.1319478E3,2.3401807E3,1.9838742E4,4.1626904E3,6.3459287E3,6.358778E3,7.421345E3,4.7059395E3],"tree_param":{"num_deleted":"0","num_feature":"38","num_nodes":"61","size_leaf_vector":"1"}},{"base_weights":[-3.9421287E-3,-1.7225596E-1,1.5185334E-1,1.3163108E-1,-3.8810855E-1,3.0207127E-1,-2.9820344E-1,2.5197038E-1,3.7500057E-2,-3.6279982E-1,-1.2767277E0,4.330588E-1,1.497529E-1,-2.3628128E-1,-7.934135E-1,-4.9787083E-1,3.3946684E-1,5.9551056E-2,-1.0520844E0,-3.43703E-1,-1.3039519E0,-1.8245814E-2,-7.082542E-1,4.3982834E-1,-1.3089967E0,-4.9714813E-1,2.292431E-1,-1.0608185E-1,-4.743314E-1,-1.3559713E0,-3.5938153E-1,1.8603175E-3,-7.85916E-3,5.101915E-3,2.296687E-3,-1.1231159E-2,7.906345E-4,-1.8122844E-2,-2.1258874E-3,-3.1746638E-3,-1.0515338E-2,-1.9823741E-3,-1.5004772E-2,-2.4346956E-3,-1.7302416E-2,4.8994333E-3,2.2892682E-3,-1.8023133E-2,4.0495032E-3,-2.448765E-3,-1.3386731E-2,3.7209669E-3,7.56967E-4,-5.494868E-3,-3.8470287E-4,-3.6321892E-3,-1.2062356E-2,-1.4794431E-2,7.725304E-3,1.9917332E-3,-1.8137006E-2],"categories":[],"categories_nodes":[],"categories_segments":[],"categories_sizes":[],"default_left":[0,0,0,0,0,0,0,0,0,0,0,0,0,0,0,0,0,0,0,0,0,0,0,0,0,0,0,0,0,0,0,0,0,0,0,0,0,0,0,0,0,0,0,0,0,0,0,0,0,0,0,0,0,0,0,0,0,0,0,0,0],"id":25,"left_children":[1,3,5,7,9,11,13,15,17,19,21,23,25,27,29,31,33,35,37,39,41,-1,43,45,47,49,51,53,55,57,59,-1,-1,-1,-1,-1,-1,-1,-1,-1,-1,-1,-1,-1,-1,-1,-1,-1,-1,-1,-1,-1,-1,-1,-1,-1,-1,-1,-1,-1,-1],"loss_changes":[2.919483E3,3.5121162E3,3.9087883E3,2.5086853E2,6.958457E2,8.626985E2,4.3915063E2,6.398073E2,2.9766953E2,5.391909E2,2.5144336E2,2.7610693E2,1.0317351E3,3.9687286E2,3.819449E2,2.0319438E2,1.6062445E2,2.8032623E2,1.479235E2,5.4802637E2,1.2318756E2,0E0,1.9850648E2,2.4236377E2,8.557335E1,4.586668E2,3.9059314E2,2.4806584E2,3.615185E2,1.9172144E2,7.509033E2,0E0,0E0,0E0,0E0,0E0,0E0,0E0,0E0,0E0,0E0,0E0,0E0,0E0,0E0,0E0,0E0,0E0,0E0,0E0,0E0,0E0,0E0,0E0,0E0,0E0,0E0,0E0,0E0,0E0,0E0],"parents":[2147483647,0,0,1,1,2,2,3,3,4,4,5,5,6,6,7,7,8,8,9,9,10,10,11,11,12,12,13,13,14,14,15,15,16,16,17,17,18,18,19,19,20,20,22,22,23,23,24,24,25,25,26,26,27,27,28,28,29,29,30,30],"right_children":[2,4,6,8,10,12,14,16,18,20,22,24,26,28,30,32,34,36,38,40,42,-1,44,46,48,50,52,54,56,58,60,-1,-1,-1,-1,-1,-1,-1,-1,-1,-1,-1,-1,-1,-1,-1,-1,-1,-1,-1,-1,-1,-1,-1,-1,-1,-1,-1,-1,-1,-1],"split_conditions":[1E0,1.1125E1,1.06E1,5E0,6E0,8.25E0,6E0,3E1,1E0,2E0,5.9E1,1E0,3.05E1,1.28E1,5.5E1,2.125E0,4.2E1,2.65E1,9.75E0,1.09E2,2E0,-1.8245814E-2,1.25E1,5.6E1,1.1E1,9.8E0,4.7E1,3.3E1,7.05E1,1.4333333E1,7.5E1,1.8603175E-3,-7.85916E-3,5.101915E-3,2.296687E-3,-1.1231159E-2,7.906345E-4,-1.8122844E-2,-2.1258874E-3,-3.1746638E-3,-1.0515338E-2,-1.9823741E-3,-1.5004772E-2,-2.4346956E-3,-1.7302416E-2,4.8994333E-3,2.2892682E-3,-1.8023133E-2,4.0495032E-3,-2.448765E-3,-1.3386731E-2,3.7209669E-3,7.56967E-4,-5.494868E-3,-3.8470287E-4,-3.6321892E-3,-1.2062356E-2,-1.4794431E-2,7.725304E-3,1.9917332E-3,-1.8137006E-2],"split_indices":[23,18,18,31,17,18,17,9,14,14,9,14,9,18,9,34,9,9,34,9,31,0,18,9,31,18,9,9,9,31,9,0,0,0,0,0,0,0,0,0,0,0,0,0,0,0,0,0,0,0,0,0,0,0,0,0,0,0,0,0,0],"split_type":[0,0,0,0,0,0,0,0,0,0,0,0,0,0,0,0,0,0,0,0,0,0,0,0,0,0,0,0,0,0,0,0,0,0,0,0,0,0,0,0,0,0,0,0,0,0,0,0,0,0,0,0,0,0,0,0,0,0,0,0,0],"sum_hessian":[1.1131859E5,5.3518418E4,5.7800176E4,2.2222047E4,3.129637E4,4.3342484E4,1.4457691E4,9.734116E3,1.2487931E4,3.044257E4,8.537993E2,2.3285398E4,2.0057084E4,1.2865375E4,1.5923167E3,1.0101397E3,8.723977E3,1.2249398E4,2.3853246E2,2.9849637E4,5.9293274E2,4.24221E2,4.2957828E2,2.3202191E4,8.320773E1,2.186725E3,1.787036E4,8.331342E3,4.5340327E3,6.839953E2,9.0832135E2,2.9701184E2,7.1312787E2,3.3939258E3,5.330051E3,1.898967E2,1.2059502E4,1.1904604E2,1.1948641E2,2.8796633E4,1.053004E3,9.390717E1,4.9902557E2,3.032622E2,1.2631608E2,1.8728408E4,4.4737837E3,6.5689964E1,1.7517767E1,1.6920775E3,4.9464758E2,9.242238E3,8.628121E3,1.0898315E3,7.2415107E3,3.9490835E3,5.84949E2,6.498427E2,3.4152554E1,6.5914465E2,2.4917668E2],"tree_param":{"num_deleted":"0","num_feature":"38","num_nodes":"61","size_leaf_vector":"1"}},{"base_weights":[4.7604376E-3,-2.178898E-1,2.5943816E-1,-1.8676905E-1,-1.2914121E0,2.8528818E-1,-4.4852514E-2,-1.607752E-1,-7.8874445E-1,-1.405919E0,1.3390829E-1,3.399851E-1,7.422252E-2,3.1056587E-2,-1.0412673E0,